<?xml version="1.0"?>
<opencv_storage>
<cascade>
  <stageType>BOOST</stageType>
  <featureType>HAAR</featureType>
  <height>20</height>
  <width>20</width>
  <stageParams>
    <boostType>GAB</boostType>
    <minHitRate>9.9500000476837158e-01</minHitRate>
    <maxFalseAlarm>5.0000000000000000e-01</maxFalseAlarm>
    <weightTrimRate>9.4999999999999996e-01</weightTrimRate>
    <maxDepth>1</maxDepth>
    <maxWeakCount>100</maxWeakCount></stageParams>
  <featureParams>
    <maxCatCount>0</maxCatCount>
    <featSize>1</featSize>
    <mode>BASIC</mode></featureParams>
  <stageNum>12</stageNum>
  <stages>
    <!-- stage 0 -->
    <_>
      <maxWeakCount>2</maxWeakCount>
      <stageThreshold>-1.3628657162189484e-01</stageThreshold>
      <weakClassifiers>
        <_>
          <internalNodes>
            0 -1 47 -1.7993457615375519e-02</internalNodes>
          <leafValues>
            8.8688212633132935e-01 -9.6651786565780640e-01</leafValues></_>
        <_>
          <internalNodes>
            0 -1 17 1.0045060515403748e-01</internalNodes>
          <leafValues>
            -7.8883588314056396e-01 8.3023130893707275e-01</leafValues></_></weakClassifiers></_>
    <!-- stage 1 -->
    <_>
      <maxWeakCount>3</maxWeakCount>
      <stageThreshold>-8.4340894222259521e-01</stageThreshold>
      <weakClassifiers>
        <_>
          <internalNodes>
            0 -1 29 2.9834901914000511e-02</internalNodes>
          <leafValues>
            -8.7434554100036621e-01 7.4597495794296265e-01</leafValues></_>
        <_>
          <internalNodes>
            0 -1 3 2.4318261072039604e-02</internalNodes>
          <leafValues>
            -5.3100401163101196e-01 7.1226525306701660e-01</leafValues></_>
        <_>
          <internalNodes>
            0 -1 53 1.2065866030752659e-02</internalNodes>
          <leafValues>
            -6.3300967216491699e-01 5.6194067001342773e-01</leafValues></_></weakClassifiers></_>
    <!-- stage 2 -->
    <_>
      <maxWeakCount>6</maxWeakCount>
      <stageThreshold>-8.8987439870834351e-01</stageThreshold>
      <weakClassifiers>
        <_>
          <internalNodes>
            0 -1 16 2.2568085789680481e-01</internalNodes>
          <leafValues>
            -4.8381128907203674e-01 7.9364252090454102e-01</leafValues></_>
        <_>
          <internalNodes>
            0 -1 62 4.5643849298357964e-03</internalNodes>
          <leafValues>
            -3.3124145865440369e-01 8.2590734958648682e-01</leafValues></_>
        <_>
          <internalNodes>
            0 -1 31 7.5004860758781433e-02</internalNodes>
          <leafValues>
            -4.3474951386451721e-01 6.8312513828277588e-01</leafValues></_>
        <_>
          <internalNodes>
            0 -1 49 -1.0897626634687185e-03</internalNodes>
          <leafValues>
            4.7513225674629211e-01 -6.2183731794357300e-01</leafValues></_>
        <_>
          <internalNodes>
            0 -1 5 4.2295800521969795e-03</internalNodes>
          <leafValues>
            -4.4990250468254089e-01 7.4252259731292725e-01</leafValues></_>
        <_>
          <internalNodes>
            0 -1 48 6.9620192516595125e-04</internalNodes>
          <leafValues>
            -8.6601608991622925e-01 3.3469808101654053e-01</leafValues></_></weakClassifiers></_>
    <!-- stage 3 -->
    <_>
      <maxWeakCount>6</maxWeakCount>
      <stageThreshold>-9.7395294904708862e-01</stageThreshold>
      <weakClassifiers>
        <_>
          <internalNodes>
            0 -1 18 8.5313335061073303e-02</internalNodes>
          <leafValues>
            -7.0800626277923584e-01 6.1404991149902344e-01</leafValues></_>
        <_>
          <internalNodes>
            0 -1 42 -1.7289368435740471e-02</internalNodes>
          <leafValues>
            5.5094128847122192e-01 -5.1055628061294556e-01</leafValues></_>
        <_>
          <internalNodes>
            0 -1 23 -2.3387630935758352e-03</internalNodes>
          <leafValues>
            6.8869715929031372e-01 -4.0701624751091003e-01</leafValues></_>
        <_>
          <internalNodes>
            0 -1 64 2.2189430892467499e-03</internalNodes>
          <leafValues>
            -4.0864676237106323e-01 6.8055880069732666e-01</leafValues></_>
        <_>
          <internalNodes>
            0 -1 52 -3.3109108917415142e-03</internalNodes>
          <leafValues>
            6.4149421453475952e-01 -3.8926261663436890e-01</leafValues></_>
        <_>
          <internalNodes>
            0 -1 21 3.9380777627229691e-02</internalNodes>
          <leafValues>
            3.6032971739768982e-01 -9.0018856525421143e-01</leafValues></_></weakClassifiers></_>
    <!-- stage 4 -->
    <_>
      <maxWeakCount>6</maxWeakCount>
      <stageThreshold>-6.5840917825698853e-01</stageThreshold>
      <weakClassifiers>
        <_>
          <internalNodes>
            0 -1 59 -4.0176347829401493e-03</internalNodes>
          <leafValues>
            6.5520536899566650e-01 -4.1059601306915283e-01</leafValues></_>
        <_>
          <internalNodes>
            0 -1 7 1.4471051981672645e-03</internalNodes>
          <leafValues>
            -4.1958421468734741e-01 6.2608939409255981e-01</leafValues></_>
        <_>
          <internalNodes>
            0 -1 38 1.1736768297851086e-02</internalNodes>
          <leafValues>
            -3.6992350220680237e-01 6.8202811479568481e-01</leafValues></_>
        <_>
          <internalNodes>
            0 -1 27 -4.4117802754044533e-03</internalNodes>
          <leafValues>
            3.5385793447494507e-01 -7.7975130081176758e-01</leafValues></_>
        <_>
          <internalNodes>
            0 -1 63 6.7290649749338627e-03</internalNodes>
          <leafValues>
            -4.1968202590942383e-01 6.3598716259002686e-01</leafValues></_>
        <_>
          <internalNodes>
            0 -1 67 6.0296924784779549e-03</internalNodes>
          <leafValues>
            -3.6021485924720764e-01 7.0307940244674683e-01</leafValues></_></weakClassifiers></_>
    <!-- stage 5 -->
    <_>
      <maxWeakCount>5</maxWeakCount>
      <stageThreshold>-3.9281550049781799e-01</stageThreshold>
      <weakClassifiers>
        <_>
          <internalNodes>
            0 -1 4 3.1466025859117508e-02</internalNodes>
          <leafValues>
            -6.3924050331115723e-01 5.9290540218353271e-01</leafValues></_>
        <_>
          <internalNodes>
            0 -1 37 1.1785608530044556e-01</internalNodes>
          <leafValues>
            -3.8141965866088867e-01 7.7785962820053101e-01</leafValues></_>
        <_>
          <internalNodes>
            0 -1 22 -3.4693479537963867e-03</internalNodes>
          <leafValues>
            6.9428384304046631e-01 -3.4921771287918091e-01</leafValues></_>
        <_>
          <internalNodes>
            0 -1 11 -2.3815471213310957e-03</internalNodes>
          <leafValues>
            -9.6018451452255249e-01 3.1195032596588135e-01</leafValues></_>
        <_>
          <internalNodes>
            0 -1 9 9.7496099770069122e-03</internalNodes>
          <leafValues>
            -3.7838950753211975e-01 7.6019114255905151e-01</leafValues></_></weakClassifiers></_>
    <!-- stage 6 -->
    <_>
      <maxWeakCount>5</maxWeakCount>
      <stageThreshold>-6.6877371072769165e-01</stageThreshold>
      <weakClassifiers>
        <_>
          <internalNodes>
            0 -1 35 -2.6426592376083136e-03</internalNodes>
          <leafValues>
            -9.1327911615371704e-01 5.0817179679870605e-01</leafValues></_>
        <_>
          <internalNodes>
            0 -1 26 7.7864509075880051e-03</internalNodes>
          <leafValues>
            2.9455739259719849e-01 -9.2904764413833618e-01</leafValues></_>
        <_>
          <internalNodes>
            0 -1 0 1.0323711670935154e-02</internalNodes>
          <leafValues>
            -3.5830801725387573e-01 7.4719107151031494e-01</leafValues></_>
        <_>
          <internalNodes>
            0 -1 34 2.2466704249382019e-02</internalNodes>
          <leafValues>
            -3.6822411417961121e-01 5.7736581563949585e-01</leafValues></_>
        <_>
          <internalNodes>
            0 -1 68 -3.5552079789340496e-03</internalNodes>
          <leafValues>
            5.2096104621887207e-01 -4.2901897430419922e-01</leafValues></_></weakClassifiers></_>
    <!-- stage 7 -->
    <_>
      <maxWeakCount>7</maxWeakCount>
      <stageThreshold>-9.8084145784378052e-01</stageThreshold>
      <weakClassifiers>
        <_>
          <internalNodes>
            0 -1 30 3.2739728689193726e-02</internalNodes>
          <leafValues>
            -7.8864967823028564e-01 5.6368017196655273e-01</leafValues></_>
        <_>
          <internalNodes>
            0 -1 54 2.0920999348163605e-02</internalNodes>
          <leafValues>
            -5.3802013397216797e-01 4.7840860486030579e-01</leafValues></_>
        <_>
          <internalNodes>
            0 -1 3 2.6900019496679306e-02</internalNodes>
          <leafValues>
            -5.1515555381774902e-01 5.3074723482131958e-01</leafValues></_>
        <_>
          <internalNodes>
            0 -1 66 2.8809024952352047e-03</internalNodes>
          <leafValues>
            -4.4089832901954651e-01 6.0312104225158691e-01</leafValues></_>
        <_>
          <internalNodes>
            0 -1 40 -6.0943630523979664e-04</internalNodes>
          <leafValues>
            3.8553199172019958e-01 -7.1203446388244629e-01</leafValues></_>
        <_>
          <internalNodes>
            0 -1 44 9.3926899135112762e-03</internalNodes>
          <leafValues>
            -6.4109742641448975e-01 4.3372684717178345e-01</leafValues></_>
        <_>
          <internalNodes>
            0 -1 65 -3.5408753901720047e-03</internalNodes>
          <leafValues>
            4.8262351751327515e-01 -4.8936283588409424e-01</leafValues></_></weakClassifiers></_>
    <!-- stage 8 -->
    <_>
      <maxWeakCount>7</maxWeakCount>
      <stageThreshold>-7.9994767904281616e-01</stageThreshold>
      <weakClassifiers>
        <_>
          <internalNodes>
            0 -1 20 1.7437981441617012e-02</internalNodes>
          <leafValues>
            5.3662300109863281e-01 -9.6551722288131714e-01</leafValues></_>
        <_>
          <internalNodes>
            0 -1 23 -1.1371963191777468e-03</internalNodes>
          <leafValues>
            5.3142035007476807e-01 -4.9327179789543152e-01</leafValues></_>
        <_>
          <internalNodes>
            0 -1 43 -3.2339800149202347e-02</internalNodes>
          <leafValues>
            5.9080660343170166e-01 -4.3522846698760986e-01</leafValues></_>
        <_>
          <internalNodes>
            0 -1 46 1.0082747321575880e-03</internalNodes>
          <leafValues>
            -7.6112955808639526e-01 3.1918922066688538e-01</leafValues></_>
        <_>
          <internalNodes>
            0 -1 55 8.5552670061588287e-03</internalNodes>
          <leafValues>
            2.6950427889823914e-01 -8.2771283388137817e-01</leafValues></_>
        <_>
          <internalNodes>
            0 -1 2 3.9195034652948380e-02</internalNodes>
          <leafValues>
            -4.3176996707916260e-01 5.4194521903991699e-01</leafValues></_>
        <_>
          <internalNodes>
            0 -1 67 5.7156882248818874e-03</internalNodes>
          <leafValues>
            -3.8720834255218506e-01 6.1636847257614136e-01</leafValues></_></weakClassifiers></_>
    <!-- stage 9 -->
    <_>
      <maxWeakCount>7</maxWeakCount>
      <stageThreshold>-1.0086081027984619e+00</stageThreshold>
      <weakClassifiers>
        <_>
          <internalNodes>
            0 -1 50 1.9019298255443573e-02</internalNodes>
          <leafValues>
            5.4944181442260742e-01 -7.6829266548156738e-01</leafValues></_>
        <_>
          <internalNodes>
            0 -1 58 3.1812044326215982e-03</internalNodes>
          <leafValues>
            -5.8902430534362793e-01 4.6852910518646240e-01</leafValues></_>
        <_>
          <internalNodes>
            0 -1 25 -5.9826497454196215e-04</internalNodes>
          <leafValues>
            3.0504319071769714e-01 -9.1754114627838135e-01</leafValues></_>
        <_>
          <internalNodes>
            0 -1 41 -2.2297427058219910e-02</internalNodes>
          <leafValues>
            4.9228757619857788e-01 -4.7389829158782959e-01</leafValues></_>
        <_>
          <internalNodes>
            0 -1 56 3.1916741281747818e-03</internalNodes>
          <leafValues>
            -3.3938825130462646e-01 6.1230278015136719e-01</leafValues></_>
        <_>
          <internalNodes>
            0 -1 51 -2.4465713649988174e-03</internalNodes>
          <leafValues>
            4.8782736063003540e-01 -4.5693454146385193e-01</leafValues></_>
        <_>
          <internalNodes>
            0 -1 45 -2.6490534655749798e-03</internalNodes>
          <leafValues>
            -9.6179497241973877e-01 2.5633344054222107e-01</leafValues></_></weakClassifiers></_>
    <!-- stage 10 -->
    <_>
      <maxWeakCount>9</maxWeakCount>
      <stageThreshold>-8.8848006725311279e-01</stageThreshold>
      <weakClassifiers>
        <_>
          <internalNodes>
            0 -1 28 -6.7964131012558937e-03</internalNodes>
          <leafValues>
            5.1833271980285645e-01 -8.3863079547882080e-01</leafValues></_>
        <_>
          <internalNodes>
            0 -1 60 -6.3190525397658348e-03</internalNodes>
          <leafValues>
            8.3654153347015381e-01 -2.5874486565589905e-01</leafValues></_>
        <_>
          <internalNodes>
            0 -1 61 -4.7372984699904919e-03</internalNodes>
          <leafValues>
            7.7497643232345581e-01 -2.5034531950950623e-01</leafValues></_>
        <_>
          <internalNodes>
            0 -1 6 1.2708254158496857e-02</internalNodes>
          <leafValues>
            -5.5973744392395020e-01 4.4645163416862488e-01</leafValues></_>
        <_>
          <internalNodes>
            0 -1 13 8.2623970229178667e-04</internalNodes>
          <leafValues>
            2.7800053358078003e-01 -6.4493447542190552e-01</leafValues></_>
        <_>
          <internalNodes>
            0 -1 10 3.3835738431662321e-03</internalNodes>
          <leafValues>
            -7.9270559549331665e-01 2.5354090332984924e-01</leafValues></_>
        <_>
          <internalNodes>
            0 -1 15 5.7258240878582001e-02</internalNodes>
          <leafValues>
            -3.7425693869590759e-01 5.3190720081329346e-01</leafValues></_>
        <_>
          <internalNodes>
            0 -1 33 -2.7226542588323355e-03</internalNodes>
          <leafValues>
            -9.0816569328308105e-01 1.7884187400341034e-01</leafValues></_>
        <_>
          <internalNodes>
            0 -1 1 -7.9007502645254135e-03</internalNodes>
          <leafValues>
            6.8285197019577026e-01 -3.2892525196075439e-01</leafValues></_></weakClassifiers></_>
    <!-- stage 11 -->
    <_>
      <maxWeakCount>11</maxWeakCount>
      <stageThreshold>-1.1191561222076416e+00</stageThreshold>
      <weakClassifiers>
        <_>
          <internalNodes>
            0 -1 36 2.8239605017006397e-03</internalNodes>
          <leafValues>
            5.1771956682205200e-01 -8.5148513317108154e-01</leafValues></_>
        <_>
          <internalNodes>
            0 -1 32 1.9009886309504509e-03</internalNodes>
          <leafValues>
            3.3336260914802551e-01 -6.7117553949356079e-01</leafValues></_>
        <_>
          <internalNodes>
            0 -1 57 1.9884058274328709e-03</internalNodes>
          <leafValues>
            -4.6755614876747131e-01 4.3802639842033386e-01</leafValues></_>
        <_>
          <internalNodes>
            0 -1 24 -1.2703309766948223e-02</internalNodes>
          <leafValues>
            5.9359145164489746e-01 -3.5116174817085266e-01</leafValues></_>
        <_>
          <internalNodes>
            0 -1 14 1.1691681109368801e-02</internalNodes>
          <leafValues>
            2.3917703330516815e-01 -8.1258779764175415e-01</leafValues></_>
        <_>
          <internalNodes>
            0 -1 39 1.1616835370659828e-02</internalNodes>
          <leafValues>
            -6.4132654666900635e-01 2.8657355904579163e-01</leafValues></_>
        <_>
          <internalNodes>
            0 -1 52 -4.4242157600820065e-03</internalNodes>
          <leafValues>
            5.7309961318969727e-01 -3.0934488773345947e-01</leafValues></_>
        <_>
          <internalNodes>
            0 -1 19 -2.8175897896289825e-03</internalNodes>
          <leafValues>
            -7.4234139919281006e-01 2.3149244487285614e-01</leafValues></_>
        <_>
          <internalNodes>
            0 -1 62 7.0623718202114105e-03</internalNodes>
          <leafValues>
            -3.3273845911026001e-01 5.5906653404235840e-01</leafValues></_>
        <_>
          <internalNodes>
            0 -1 12 -8.2837864756584167e-03</internalNodes>
          <leafValues>
            7.5907301902770996e-01 -2.2410763800144196e-01</leafValues></_>
        <_>
          <internalNodes>
            0 -1 8 -5.6296435650438070e-04</internalNodes>
          <leafValues>
            4.3936541676521301e-01 -4.0802577137947083e-01</leafValues></_></weakClassifiers></_></stages>
  <features>
    <_>
      <rects>
        <_>
          0 5 2 4 -1.</_>
        <_>
          1 5 1 4 2.</_></rects>
      <tilted>0</tilted></_>
    <_>
      <rects>
        <_>
          0 6 2 8 -1.</_>
        <_>
          0 6 1 4 2.</_>
        <_>
          1 10 1 4 2.</_></rects>
      <tilted>0</tilted></_>
    <_>
      <rects>
        <_>
          0 6 4 9 -1.</_>
        <_>
          2 6 2 9 2.</_></rects>
      <tilted>0</tilted></_>
    <_>
      <rects>
        <_>
          0 6 4 10 -1.</_>
        <_>
          2 6 2 10 2.</_></rects>
      <tilted>0</tilted></_>
    <_>
      <rects>
        <_>
          0 13 18 5 -1.</_>
        <_>
          6 13 6 5 3.</_></rects>
      <tilted>0</tilted></_>
    <_>
      <rects>
        <_>
          1 10 2 2 -1.</_>
        <_>
          2 10 1 2 2.</_></rects>
      <tilted>0</tilted></_>
    <_>
      <rects>
        <_>
          1 10 15 7 -1.</_>
        <_>
          6 10 5 7 3.</_></rects>
      <tilted>0</tilted></_>
    <_>
      <rects>
        <_>
          1 11 2 1 -1.</_>
        <_>
          2 11 1 1 2.</_></rects>
      <tilted>0</tilted></_>
    <_>
      <rects>
        <_>
          2 5 3 4 -1.</_>
        <_>
          3 5 1 4 3.</_></rects>
      <tilted>0</tilted></_>
    <_>
      <rects>
        <_>
          2 9 3 4 -1.</_>
        <_>
          3 9 1 4 3.</_></rects>
      <tilted>0</tilted></_>
    <_>
      <rects>
        <_>
          3 3 9 7 -1.</_>
        <_>
          6 3 3 7 3.</_></rects>
      <tilted>0</tilted></_>
    <_>
      <rects>
        <_>
          3 6 6 2 -1.</_>
        <_>
          6 6 3 2 2.</_></rects>
      <tilted>0</tilted></_>
    <_>
      <rects>
        <_>
          3 7 3 6 -1.</_>
        <_>
          4 7 1 6 3.</_></rects>
      <tilted>0</tilted></_>
    <_>
      <rects>
        <_>
          3 7 4 6 -1.</_>
        <_>
          5 7 2 6 2.</_></rects>
      <tilted>0</tilted></_>
    <_>
      <rects>
        <_>
          3 10 6 4 -1.</_>
        <_>
          5 10 2 4 3.</_></rects>
      <tilted>0</tilted></_>
    <_>
      <rects>
        <_>
          4 0 9 4 -1.</_>
        <_>
          4 2 9 2 2.</_></rects>
      <tilted>0</tilted></_>
    <_>
      <rects>
        <_>
          4 0 13 12 -1.</_>
        <_>
          4 4 13 4 3.</_></rects>
      <tilted>0</tilted></_>
    <_>
      <rects>
        <_>
          4 1 12 9 -1.</_>
        <_>
          4 4 12 3 3.</_></rects>
      <tilted>0</tilted></_>
    <_>
      <rects>
        <_>
          4 2 13 9 -1.</_>
        <_>
          4 5 13 3 3.</_></rects>
      <tilted>0</tilted></_>
    <_>
      <rects>
        <_>
          4 4 9 4 -1.</_>
        <_>
          7 4 3 4 3.</_></rects>
      <tilted>0</tilted></_>
    <_>
      <rects>
        <_>
          4 5 12 6 -1.</_>
        <_>
          8 5 4 6 3.</_></rects>
      <tilted>0</tilted></_>
    <_>
      <rects>
        <_>
          5 3 12 16 -1.</_>
        <_>
          5 11 12 8 2.</_></rects>
      <tilted>0</tilted></_>
    <_>
      <rects>
        <_>
          5 9 3 2 -1.</_>
        <_>
          6 9 1 2 3.</_></rects>
      <tilted>0</tilted></_>
    <_>
      <rects>
        <_>
          5 10 3 1 -1.</_>
        <_>
          6 10 1 1 3.</_></rects>
      <tilted>0</tilted></_>
    <_>
      <rects>
        <_>
          5 18 9 2 -1.</_>
        <_>
          5 19 9 1 2.</_></rects>
      <tilted>0</tilted></_>
    <_>
      <rects>
        <_>
          6 2 9 16 -1.</_>
        <_>
          6 10 9 8 2.</_></rects>
      <tilted>0</tilted></_>
    <_>
      <rects>
        <_>
          6 4 8 2 -1.</_>
        <_>
          10 4 4 2 2.</_></rects>
      <tilted>0</tilted></_>
    <_>
      <rects>
        <_>
          6 7 9 4 -1.</_>
        <_>
          9 7 3 4 3.</_></rects>
      <tilted>0</tilted></_>
    <_>
      <rects>
        <_>
          6 7 9 6 -1.</_>
        <_>
          6 9 9 2 3.</_></rects>
      <tilted>0</tilted></_>
    <_>
      <rects>
        <_>
          6 9 8 8 -1.</_>
        <_>
          6 13 8 4 2.</_></rects>
      <tilted>0</tilted></_>
    <_>
      <rects>
        <_>
          6 9 9 8 -1.</_>
        <_>
          6 13 9 4 2.</_></rects>
      <tilted>0</tilted></_>
    <_>
      <rects>
        <_>
          6 11 7 9 -1.</_>
        <_>
          6 14 7 3 3.</_></rects>
      <tilted>0</tilted></_>
    <_>
      <rects>
        <_>
          6 15 6 1 -1.</_>
        <_>
          8 15 2 1 3.</_></rects>
      <tilted>0</tilted></_>
    <_>
      <rects>
        <_>
          6 15 6 2 -1.</_>
        <_>
          9 15 3 2 2.</_></rects>
      <tilted>0</tilted></_>
    <_>
      <rects>
        <_>
          7 0 5 6 -1.</_>
        <_>
          7 2 5 2 3.</_></rects>
      <tilted>0</tilted></_>
    <_>
      <rects>
        <_>
          7 5 6 2 -1.</_>
        <_>
          10 5 3 2 2.</_></rects>
      <tilted>0</tilted></_>
    <_>
      <rects>
        <_>
          7 15 6 1 -1.</_>
        <_>
          10 15 3 1 2.</_></rects>
      <tilted>0</tilted></_>
    <_>
      <rects>
        <_>
          8 0 8 9 -1.</_>
        <_>
          8 3 8 3 3.</_></rects>
      <tilted>0</tilted></_>
    <_>
      <rects>
        <_>
          8 1 6 2 -1.</_>
        <_>
          8 2 6 1 2.</_></rects>
      <tilted>0</tilted></_>
    <_>
      <rects>
        <_>
          8 4 12 13 -1.</_>
        <_>
          12 4 4 13 3.</_></rects>
      <tilted>0</tilted></_>
    <_>
      <rects>
        <_>
          8 7 2 3 -1.</_>
        <_>
          9 7 1 3 2.</_></rects>
      <tilted>0</tilted></_>
    <_>
      <rects>
        <_>
          8 16 4 4 -1.</_>
        <_>
          8 18 4 2 2.</_></rects>
      <tilted>0</tilted></_>
    <_>
      <rects>
        <_>
          8 16 5 4 -1.</_>
        <_>
          8 18 5 2 2.</_></rects>
      <tilted>0</tilted></_>
    <_>
      <rects>
        <_>
          8 16 7 4 -1.</_>
        <_>
          8 18 7 2 2.</_></rects>
      <tilted>0</tilted></_>
    <_>
      <rects>
        <_>
          9 1 4 6 -1.</_>
        <_>
          9 3 4 2 3.</_></rects>
      <tilted>0</tilted></_>
    <_>
      <rects>
        <_>
          9 3 2 4 -1.</_>
        <_>
          9 5 2 2 2.</_></rects>
      <tilted>0</tilted></_>
    <_>
      <rects>
        <_>
          9 4 9 7 -1.</_>
        <_>
          12 4 3 7 3.</_></rects>
      <tilted>0</tilted></_>
    <_>
      <rects>
        <_>
          9 5 3 6 -1.</_>
        <_>
          9 8 3 3 2.</_></rects>
      <tilted>0</tilted></_>
    <_>
      <rects>
        <_>
          9 6 1 12 -1.</_>
        <_>
          9 12 1 6 2.</_></rects>
      <tilted>0</tilted></_>
    <_>
      <rects>
        <_>
          9 7 3 3 -1.</_>
        <_>
          10 7 1 3 3.</_></rects>
      <tilted>0</tilted></_>
    <_>
      <rects>
        <_>
          9 10 9 3 -1.</_>
        <_>
          12 10 3 3 3.</_></rects>
      <tilted>0</tilted></_>
    <_>
      <rects>
        <_>
          10 0 2 3 -1.</_>
        <_>
          10 1 2 1 3.</_></rects>
      <tilted>0</tilted></_>
    <_>
      <rects>
        <_>
          10 7 1 3 -1.</_>
        <_>
          10 8 1 1 3.</_></rects>
      <tilted>0</tilted></_>
    <_>
      <rects>
        <_>
          10 13 4 6 -1.</_>
        <_>
          10 15 4 2 3.</_></rects>
      <tilted>0</tilted></_>
    <_>
      <rects>
        <_>
          10 13 5 6 -1.</_>
        <_>
          10 15 5 2 3.</_></rects>
      <tilted>0</tilted></_>
    <_>
      <rects>
        <_>
          11 3 4 13 -1.</_>
        <_>
          13 3 2 13 2.</_></rects>
      <tilted>0</tilted></_>
    <_>
      <rects>
        <_>
          11 9 2 2 -1.</_>
        <_>
          12 9 1 2 2.</_></rects>
      <tilted>0</tilted></_>
    <_>
      <rects>
        <_>
          11 9 3 2 -1.</_>
        <_>
          12 9 1 2 3.</_></rects>
      <tilted>0</tilted></_>
    <_>
      <rects>
        <_>
          11 12 9 4 -1.</_>
        <_>
          14 12 3 4 3.</_></rects>
      <tilted>0</tilted></_>
    <_>
      <rects>
        <_>
          11 16 2 4 -1.</_>
        <_>
          11 18 2 2 2.</_></rects>
      <tilted>0</tilted></_>
    <_>
      <rects>
        <_>
          12 9 3 3 -1.</_>
        <_>
          13 9 1 3 3.</_></rects>
      <tilted>0</tilted></_>
    <_>
      <rects>
        <_>
          13 9 3 2 -1.</_>
        <_>
          14 9 1 2 3.</_></rects>
      <tilted>0</tilted></_>
    <_>
      <rects>
        <_>
          16 10 3 2 -1.</_>
        <_>
          17 10 1 2 3.</_></rects>
      <tilted>0</tilted></_>
    <_>
      <rects>
        <_>
          16 10 3 3 -1.</_>
        <_>
          17 10 1 3 3.</_></rects>
      <tilted>0</tilted></_>
    <_>
      <rects>
        <_>
          16 11 3 1 -1.</_>
        <_>
          17 11 1 1 3.</_></rects>
      <tilted>0</tilted></_>
    <_>
      <rects>
        <_>
          16 12 4 2 -1.</_>
        <_>
          18 12 2 2 2.</_></rects>
      <tilted>0</tilted></_>
    <_>
      <rects>
        <_>
          17 6 3 3 -1.</_>
        <_>
          18 6 1 3 3.</_></rects>
      <tilted>0</tilted></_>
    <_>
      <rects>
        <_>
          17 7 3 3 -1.</_>
        <_>
          18 7 1 3 3.</_></rects>
      <tilted>0</tilted></_>
    <_>
      <rects>
        <_>
          17 11 2 2 -1.</_>
        <_>
          18 11 1 2 2.</_></rects>
      <tilted>0</tilted></_></features></cascade>
</opencv_storage>
