<?xml version="1.0"?>
<opencv_storage>
<cascade>
  <stageType>BOOST</stageType>
  <featureType>HAAR</featureType>
  <height>20</height>
  <width>20</width>
  <stageParams>
    <boostType>GAB</boostType>
    <minHitRate>9.9500000476837158e-01</minHitRate>
    <maxFalseAlarm>5.0000000000000000e-01</maxFalseAlarm>
    <weightTrimRate>9.4999999999999996e-01</weightTrimRate>
    <maxDepth>1</maxDepth>
    <maxWeakCount>100</maxWeakCount></stageParams>
  <featureParams>
    <maxCatCount>0</maxCatCount>
    <featSize>1</featSize>
    <mode>BASIC</mode></featureParams>
  <stageNum>50</stageNum>
  <stages>
    <!-- stage 0 -->
    <_>
      <maxWeakCount>16</maxWeakCount>
      <stageThreshold>-1.1482512950897217e+00</stageThreshold>
      <weakClassifiers>
        <_>
          <internalNodes>
            0 -1 440 4.6282255789265037e-04</internalNodes>
          <leafValues>
            -2.5854513049125671e-01 6.9661110639572144e-01</leafValues></_>
        <_>
          <internalNodes>
            0 -1 756 -1.9723027944564819e-03</internalNodes>
          <leafValues>
            5.1281172037124634e-01 -2.4238862097263336e-01</leafValues></_>
        <_>
          <internalNodes>
            0 -1 690 -3.9647696539759636e-03</internalNodes>
          <leafValues>
            5.7543694972991943e-01 -2.3809029161930084e-01</leafValues></_>
        <_>
          <internalNodes>
            0 -1 494 3.2073869369924068e-03</internalNodes>
          <leafValues>
            -2.7073866128921509e-01 4.0402033925056458e-01</leafValues></_>
        <_>
          <internalNodes>
            0 -1 861 -4.8471934860572219e-04</internalNodes>
          <leafValues>
            3.4103369712829590e-01 -3.0619898438453674e-01</leafValues></_>
        <_>
          <internalNodes>
            0 -1 254 -2.5707498192787170e-02</internalNodes>
          <leafValues>
            5.8447283506393433e-01 -1.6377469897270203e-01</leafValues></_>
        <_>
          <internalNodes>
            0 -1 815 -2.8118170797824860e-02</internalNodes>
          <leafValues>
            6.1321341991424561e-01 -1.8856993317604065e-01</leafValues></_>
        <_>
          <internalNodes>
            0 -1 621 2.1700692013837397e-04</internalNodes>
          <leafValues>
            -3.6366522312164307e-01 2.9625144600868225e-01</leafValues></_>
        <_>
          <internalNodes>
            0 -1 509 2.6769749820232391e-02</internalNodes>
          <leafValues>
            1.5970014035701752e-01 -6.0337024927139282e-01</leafValues></_>
        <_>
          <internalNodes>
            0 -1 241 -2.2090999409556389e-03</internalNodes>
          <leafValues>
            3.4752503037452698e-01 -2.5782319903373718e-01</leafValues></_>
        <_>
          <internalNodes>
            0 -1 656 -3.6892473697662354e-02</internalNodes>
          <leafValues>
            -8.1485426425933838e-01 1.4191849529743195e-01</leafValues></_>
        <_>
          <internalNodes>
            0 -1 1036 -9.6769857918843627e-04</internalNodes>
          <leafValues>
            3.6283889412879944e-01 -2.3636278510093689e-01</leafValues></_>
        <_>
          <internalNodes>
            0 -1 590 -2.9567599995061755e-04</internalNodes>
          <leafValues>
            3.4095042943954468e-01 -2.4161724746227264e-01</leafValues></_>
        <_>
          <internalNodes>
            0 -1 340 1.2659627944231033e-02</internalNodes>
          <leafValues>
            -1.7755793035030365e-01 4.4373187422752380e-01</leafValues></_>
        <_>
          <internalNodes>
            0 -1 419 -1.3749611098319292e-03</internalNodes>
          <leafValues>
            -6.3520044088363647e-01 1.1215654015541077e-01</leafValues></_>
        <_>
          <internalNodes>
            0 -1 396 -1.4193247770890594e-03</internalNodes>
          <leafValues>
            3.6438724398612976e-01 -1.9084222614765167e-01</leafValues></_></weakClassifiers></_>
    <!-- stage 1 -->
    <_>
      <maxWeakCount>23</maxWeakCount>
      <stageThreshold>-9.6783089637756348e-01</stageThreshold>
      <weakClassifiers>
        <_>
          <internalNodes>
            0 -1 606 -5.3530291188508272e-04</internalNodes>
          <leafValues>
            6.3113367557525635e-01 -9.6984513103961945e-02</leafValues></_>
        <_>
          <internalNodes>
            0 -1 1118 -3.6092763766646385e-03</internalNodes>
          <leafValues>
            4.8544776439666748e-01 -1.3064837455749512e-01</leafValues></_>
        <_>
          <internalNodes>
            0 -1 1053 -2.8465599752962589e-03</internalNodes>
          <leafValues>
            4.5146140456199646e-01 -1.7474602162837982e-01</leafValues></_>
        <_>
          <internalNodes>
            0 -1 414 -1.2000611051917076e-02</internalNodes>
          <leafValues>
            -7.8152573108673096e-01 9.7213514149188995e-02</leafValues></_>
        <_>
          <internalNodes>
            0 -1 771 -1.6014656284824014e-03</internalNodes>
          <leafValues>
            3.3510187268257141e-01 -2.3075205087661743e-01</leafValues></_>
        <_>
          <internalNodes>
            0 -1 941 -2.0581036806106567e-03</internalNodes>
          <leafValues>
            3.1140649318695068e-01 -2.6107555627822876e-01</leafValues></_>
        <_>
          <internalNodes>
            0 -1 679 -1.9375618547201157e-02</internalNodes>
          <leafValues>
            -5.1454377174377441e-01 1.1494914442300797e-01</leafValues></_>
        <_>
          <internalNodes>
            0 -1 349 1.7993589863181114e-03</internalNodes>
          <leafValues>
            -2.0191141963005066e-01 3.0899134278297424e-01</leafValues></_>
        <_>
          <internalNodes>
            0 -1 434 -1.5227238181978464e-03</internalNodes>
          <leafValues>
            3.1068262457847595e-01 -2.3533757030963898e-01</leafValues></_>
        <_>
          <internalNodes>
            0 -1 734 -3.1705081928521395e-03</internalNodes>
          <leafValues>
            4.9036043882369995e-01 -1.4268469810485840e-01</leafValues></_>
        <_>
          <internalNodes>
            0 -1 592 -2.3350515402853489e-03</internalNodes>
          <leafValues>
            -5.9401285648345947e-01 1.0743302851915359e-01</leafValues></_>
        <_>
          <internalNodes>
            0 -1 824 9.5804333686828613e-03</internalNodes>
          <leafValues>
            -1.5144923329353333e-01 3.9579296112060547e-01</leafValues></_>
        <_>
          <internalNodes>
            0 -1 715 -5.1036323420703411e-03</internalNodes>
          <leafValues>
            5.2740949392318726e-01 -1.1611383408308029e-01</leafValues></_>
        <_>
          <internalNodes>
            0 -1 836 -2.0766902714967728e-02</internalNodes>
          <leafValues>
            5.5672138929367065e-01 -1.0499387979507446e-01</leafValues></_>
        <_>
          <internalNodes>
            0 -1 511 -5.5985269136726856e-03</internalNodes>
          <leafValues>
            3.0528107285499573e-01 -2.0426480472087860e-01</leafValues></_>
        <_>
          <internalNodes>
            0 -1 422 6.4132158877328038e-04</internalNodes>
          <leafValues>
            -3.1782576441764832e-01 1.8724140524864197e-01</leafValues></_>
        <_>
          <internalNodes>
            0 -1 107 -8.3855148404836655e-03</internalNodes>
          <leafValues>
            4.6122547984123230e-01 -1.5852381289005280e-01</leafValues></_>
        <_>
          <internalNodes>
            0 -1 896 -5.4686784278601408e-04</internalNodes>
          <leafValues>
            2.7409875392913818e-01 -2.0928210020065308e-01</leafValues></_>
        <_>
          <internalNodes>
            0 -1 609 4.1180159896612167e-03</internalNodes>
          <leafValues>
            1.0136231034994125e-01 -6.3613420724868774e-01</leafValues></_>
        <_>
          <internalNodes>
            0 -1 861 -3.6026583984494209e-04</internalNodes>
          <leafValues>
            2.0428909361362457e-01 -2.7441695332527161e-01</leafValues></_>
        <_>
          <internalNodes>
            0 -1 595 -2.0121762063354254e-03</internalNodes>
          <leafValues>
            -5.4716217517852783e-01 1.1458700150251389e-01</leafValues></_>
        <_>
          <internalNodes>
            0 -1 985 1.5316375065594912e-03</internalNodes>
          <leafValues>
            -1.6249987483024597e-01 3.2744193077087402e-01</leafValues></_>
        <_>
          <internalNodes>
            0 -1 979 1.2821450829505920e-02</internalNodes>
          <leafValues>
            -1.0127176344394684e-01 4.3779468536376953e-01</leafValues></_></weakClassifiers></_>
    <!-- stage 2 -->
    <_>
      <maxWeakCount>32</maxWeakCount>
      <stageThreshold>-9.2802739143371582e-01</stageThreshold>
      <weakClassifiers>
        <_>
          <internalNodes>
            0 -1 622 -5.8897834969684482e-04</internalNodes>
          <leafValues>
            5.7168567180633545e-01 3.5258814692497253e-02</leafValues></_>
        <_>
          <internalNodes>
            0 -1 973 9.2350738123059273e-04</internalNodes>
          <leafValues>
            -1.7540748417377472e-01 3.1742763519287109e-01</leafValues></_>
        <_>
          <internalNodes>
            0 -1 840 -4.3690809980034828e-03</internalNodes>
          <leafValues>
            2.9426369071006775e-01 -1.7728400230407715e-01</leafValues></_>
        <_>
          <internalNodes>
            0 -1 609 3.3774520852603018e-04</internalNodes>
          <leafValues>
            -3.6126291751861572e-01 1.4751780033111572e-01</leafValues></_>
        <_>
          <internalNodes>
            0 -1 427 1.4310267288237810e-03</internalNodes>
          <leafValues>
            -2.0644225180149078e-01 2.7704948186874390e-01</leafValues></_>
        <_>
          <internalNodes>
            0 -1 432 4.6872589737176895e-03</internalNodes>
          <leafValues>
            9.4300612807273865e-02 -4.9406194686889648e-01</leafValues></_>
        <_>
          <internalNodes>
            0 -1 414 -8.0173946917057037e-03</internalNodes>
          <leafValues>
            -5.7330989837646484e-01 9.9453419446945190e-02</leafValues></_>
        <_>
          <internalNodes>
            0 -1 384 -3.6718632327392697e-04</internalNodes>
          <leafValues>
            2.2760912775993347e-01 -2.3199807107448578e-01</leafValues></_>
        <_>
          <internalNodes>
            0 -1 750 -2.8849993832409382e-03</internalNodes>
          <leafValues>
            4.1863819956779480e-01 -1.2697838246822357e-01</leafValues></_>
        <_>
          <internalNodes>
            0 -1 679 -3.7530973553657532e-02</internalNodes>
          <leafValues>
            -7.7188533544540405e-01 5.4364040493965149e-02</leafValues></_>
        <_>
          <internalNodes>
            0 -1 394 -2.6773702353239059e-02</internalNodes>
          <leafValues>
            5.0730264186859131e-01 -1.0296475887298584e-01</leafValues></_>
        <_>
          <internalNodes>
            0 -1 740 -2.0913328044116497e-03</internalNodes>
          <leafValues>
            3.6786091327667236e-01 -1.7681954801082611e-01</leafValues></_>
        <_>
          <internalNodes>
            0 -1 972 1.9033693242818117e-03</internalNodes>
          <leafValues>
            1.1321311444044113e-01 -5.7975268363952637e-01</leafValues></_>
        <_>
          <internalNodes>
            0 -1 566 -3.8728991057723761e-03</internalNodes>
          <leafValues>
            3.7597125768661499e-01 -1.6602863371372223e-01</leafValues></_>
        <_>
          <internalNodes>
            0 -1 575 3.2840415951795876e-04</internalNodes>
          <leafValues>
            -2.6646897196769714e-01 2.0663619041442871e-01</leafValues></_>
        <_>
          <internalNodes>
            0 -1 450 -5.4254094138741493e-03</internalNodes>
          <leafValues>
            3.4349274635314941e-01 -1.5524190664291382e-01</leafValues></_>
        <_>
          <internalNodes>
            0 -1 1121 -1.0836770525202155e-03</internalNodes>
          <leafValues>
            2.9958608746528625e-01 -1.6407871246337891e-01</leafValues></_>
        <_>
          <internalNodes>
            0 -1 118 7.2504244744777679e-03</internalNodes>
          <leafValues>
            -1.3039284944534302e-01 3.4262949228286743e-01</leafValues></_>
        <_>
          <internalNodes>
            0 -1 1042 6.8546086549758911e-04</internalNodes>
          <leafValues>
            -1.7981772124767303e-01 2.3215076327323914e-01</leafValues></_>
        <_>
          <internalNodes>
            0 -1 1047 1.2947927229106426e-02</internalNodes>
          <leafValues>
            -1.2237334996461868e-01 3.8157245516777039e-01</leafValues></_>
        <_>
          <internalNodes>
            0 -1 823 7.7898772433400154e-03</internalNodes>
          <leafValues>
            -1.2373446673154831e-01 3.6412632465362549e-01</leafValues></_>
        <_>
          <internalNodes>
            0 -1 340 1.4921876601874828e-02</internalNodes>
          <leafValues>
            -1.4181052148342133e-01 4.0664014220237732e-01</leafValues></_>
        <_>
          <internalNodes>
            0 -1 593 -3.3085204195231199e-03</internalNodes>
          <leafValues>
            -7.8949671983718872e-01 5.8878466486930847e-02</leafValues></_>
        <_>
          <internalNodes>
            0 -1 591 4.3500522151589394e-03</internalNodes>
          <leafValues>
            5.6842558085918427e-02 -7.2710919380187988e-01</leafValues></_>
        <_>
          <internalNodes>
            0 -1 1026 -8.6477566510438919e-03</internalNodes>
          <leafValues>
            -6.3897562026977539e-01 5.2466407418251038e-02</leafValues></_>
        <_>
          <internalNodes>
            0 -1 345 1.0760715603828430e-01</internalNodes>
          <leafValues>
            4.1403710842132568e-02 -7.8932249546051025e-01</leafValues></_>
        <_>
          <internalNodes>
            0 -1 517 -7.2879344224929810e-02</internalNodes>
          <leafValues>
            -6.5076905488967896e-01 5.6514773517847061e-02</leafValues></_>
        <_>
          <internalNodes>
            0 -1 852 -6.0290023684501648e-03</internalNodes>
          <leafValues>
            3.8370153307914734e-01 -1.1936819553375244e-01</leafValues></_>
        <_>
          <internalNodes>
            0 -1 808 -1.0642236098647118e-02</internalNodes>
          <leafValues>
            2.4570535123348236e-01 -2.0874656736850739e-01</leafValues></_>
        <_>
          <internalNodes>
            0 -1 389 1.0572595056146383e-03</internalNodes>
          <leafValues>
            -1.8136732280254364e-01 2.2564367949962616e-01</leafValues></_>
        <_>
          <internalNodes>
            0 -1 606 -4.0366381290368736e-04</internalNodes>
          <leafValues>
            1.8275776505470276e-01 -2.2495719790458679e-01</leafValues></_>
        <_>
          <internalNodes>
            0 -1 310 -6.9593931548297405e-03</internalNodes>
          <leafValues>
            3.7451085448265076e-01 -1.1105764657258987e-01</leafValues></_></weakClassifiers></_>
    <!-- stage 3 -->
    <_>
      <maxWeakCount>36</maxWeakCount>
      <stageThreshold>-8.4306573867797852e-01</stageThreshold>
      <weakClassifiers>
        <_>
          <internalNodes>
            0 -1 606 -2.7337443316355348e-04</internalNodes>
          <leafValues>
            5.1416224241256714e-01 -7.7426388859748840e-02</leafValues></_>
        <_>
          <internalNodes>
            0 -1 864 -2.6973371859639883e-04</internalNodes>
          <leafValues>
            2.3915538191795349e-01 -2.4214133620262146e-01</leafValues></_>
        <_>
          <internalNodes>
            0 -1 367 7.8544591087847948e-04</internalNodes>
          <leafValues>
            -2.4850380420684814e-01 2.1944455802440643e-01</leafValues></_>
        <_>
          <internalNodes>
            0 -1 946 -2.7760355733335018e-03</internalNodes>
          <leafValues>
            3.1922200322151184e-01 -1.8023158609867096e-01</leafValues></_>
        <_>
          <internalNodes>
            0 -1 943 1.3970636762678623e-02</internalNodes>
          <leafValues>
            -1.4142565429210663e-01 5.0445783138275146e-01</leafValues></_>
        <_>
          <internalNodes>
            0 -1 1060 -1.0331542231142521e-02</internalNodes>
          <leafValues>
            4.4441479444503784e-01 -1.0565265268087387e-01</leafValues></_>
        <_>
          <internalNodes>
            0 -1 676 -1.2247323989868164e-02</internalNodes>
          <leafValues>
            -4.4461226463317871e-01 1.0243627429008484e-01</leafValues></_>
        <_>
          <internalNodes>
            0 -1 1119 2.6746280491352081e-03</internalNodes>
          <leafValues>
            -1.6709865629673004e-01 3.2475438714027405e-01</leafValues></_>
        <_>
          <internalNodes>
            0 -1 590 -3.3041296410374343e-04</internalNodes>
          <leafValues>
            2.4568629264831543e-01 -2.0267012715339661e-01</leafValues></_>
        <_>
          <internalNodes>
            0 -1 581 -2.7007146272808313e-03</internalNodes>
          <leafValues>
            3.8669282197952271e-01 -1.7535731196403503e-01</leafValues></_>
        <_>
          <internalNodes>
            0 -1 622 -6.9305300712585449e-04</internalNodes>
          <leafValues>
            2.8503090143203735e-01 -2.2819229960441589e-01</leafValues></_>
        <_>
          <internalNodes>
            0 -1 380 -8.8252255227416754e-04</internalNodes>
          <leafValues>
            2.5115376710891724e-01 -1.9428162276744843e-01</leafValues></_>
        <_>
          <internalNodes>
            0 -1 880 -3.3352505415678024e-03</internalNodes>
          <leafValues>
            3.4062957763671875e-01 -1.3388045132160187e-01</leafValues></_>
        <_>
          <internalNodes>
            0 -1 738 -1.6046017408370972e-02</internalNodes>
          <leafValues>
            -7.8322017192840576e-01 5.4395277053117752e-02</leafValues></_>
        <_>
          <internalNodes>
            0 -1 1117 -3.1106516253203154e-03</internalNodes>
          <leafValues>
            2.9602882266044617e-01 -1.5862633287906647e-01</leafValues></_>
        <_>
          <internalNodes>
            0 -1 809 -6.4224842935800552e-03</internalNodes>
          <leafValues>
            -3.0024656653404236e-01 1.3271649181842804e-01</leafValues></_>
        <_>
          <internalNodes>
            0 -1 811 4.3458223342895508e-02</internalNodes>
          <leafValues>
            7.9543419182300568e-02 -4.6631336212158203e-01</leafValues></_>
        <_>
          <internalNodes>
            0 -1 1070 -8.7059626821428537e-04</internalNodes>
          <leafValues>
            2.4235089123249054e-01 -1.5060991048812866e-01</leafValues></_>
        <_>
          <internalNodes>
            0 -1 1013 1.8755458295345306e-03</internalNodes>
          <leafValues>
            6.7498259246349335e-02 -6.0770708322525024e-01</leafValues></_>
        <_>
          <internalNodes>
            0 -1 274 -3.0436266679316759e-03</internalNodes>
          <leafValues>
            3.9902383089065552e-01 -9.8817802965641022e-02</leafValues></_>
        <_>
          <internalNodes>
            0 -1 304 -4.5714192092418671e-03</internalNodes>
          <leafValues>
            5.1716732978820801e-01 -7.3185905814170837e-02</leafValues></_>
        <_>
          <internalNodes>
            0 -1 421 1.4149048365652561e-03</internalNodes>
          <leafValues>
            1.0974206775426865e-01 -3.7271684408187866e-01</leafValues></_>
        <_>
          <internalNodes>
            0 -1 669 -1.8130091484636068e-03</internalNodes>
          <leafValues>
            2.1497571468353271e-01 -1.7105449736118317e-01</leafValues></_>
        <_>
          <internalNodes>
            0 -1 379 5.6593194603919983e-03</internalNodes>
          <leafValues>
            5.6274279952049255e-02 -6.7234957218170166e-01</leafValues></_>
        <_>
          <internalNodes>
            0 -1 719 -3.4039714373648167e-03</internalNodes>
          <leafValues>
            3.3514791727066040e-01 -1.2039981037378311e-01</leafValues></_>
        <_>
          <internalNodes>
            0 -1 545 1.6773447394371033e-02</internalNodes>
          <leafValues>
            -9.6128955483436584e-02 4.2108479142189026e-01</leafValues></_>
        <_>
          <internalNodes>
            0 -1 419 -1.5885301399976015e-03</internalNodes>
          <leafValues>
            -5.7811796665191650e-01 8.6589261889457703e-02</leafValues></_>
        <_>
          <internalNodes>
            0 -1 387 5.8255402836948633e-04</internalNodes>
          <leafValues>
            -1.9445610046386719e-01 2.1069678664207458e-01</leafValues></_>
        <_>
          <internalNodes>
            0 -1 678 -2.9469449073076248e-02</internalNodes>
          <leafValues>
            3.6404374241828918e-01 -9.6405021846294403e-02</leafValues></_>
        <_>
          <internalNodes>
            0 -1 680 -1.0204941965639591e-02</internalNodes>
          <leafValues>
            -5.8433377742767334e-01 6.3532724976539612e-02</leafValues></_>
        <_>
          <internalNodes>
            0 -1 662 -3.1252892222255468e-03</internalNodes>
          <leafValues>
            1.8089009821414948e-01 -2.0976458489894867e-01</leafValues></_>
        <_>
          <internalNodes>
            0 -1 72 -7.6286122202873230e-02</internalNodes>
          <leafValues>
            -3.6294046044349670e-01 1.0053422302007675e-01</leafValues></_>
        <_>
          <internalNodes>
            0 -1 713 -4.6294527128338814e-03</internalNodes>
          <leafValues>
            3.0818837881088257e-01 -1.2076123803853989e-01</leafValues></_>
        <_>
          <internalNodes>
            0 -1 536 1.9889317452907562e-02</internalNodes>
          <leafValues>
            4.3217442929744720e-02 -8.2018488645553589e-01</leafValues></_>
        <_>
          <internalNodes>
            0 -1 312 -2.2058049216866493e-03</internalNodes>
          <leafValues>
            3.3052560687065125e-01 -1.1056329309940338e-01</leafValues></_>
        <_>
          <internalNodes>
            0 -1 791 8.6285751312971115e-03</internalNodes>
          <leafValues>
            -7.9094581305980682e-02 4.1105866432189941e-01</leafValues></_></weakClassifiers></_>
    <!-- stage 4 -->
    <_>
      <maxWeakCount>46</maxWeakCount>
      <stageThreshold>-8.1370097398757935e-01</stageThreshold>
      <weakClassifiers>
        <_>
          <internalNodes>
            0 -1 440 6.4048141939565539e-04</internalNodes>
          <leafValues>
            -9.9502492230385542e-04 5.0175440311431885e-01</leafValues></_>
        <_>
          <internalNodes>
            0 -1 421 -1.5224483795464039e-03</internalNodes>
          <leafValues>
            -4.5368939638137817e-01 1.3344618678092957e-01</leafValues></_>
        <_>
          <internalNodes>
            0 -1 1037 1.1017046868801117e-02</internalNodes>
          <leafValues>
            -9.6189461648464203e-02 4.7584822773933411e-01</leafValues></_>
        <_>
          <internalNodes>
            0 -1 815 -2.1271809935569763e-02</internalNodes>
          <leafValues>
            3.0430445075035095e-01 -1.2787501513957977e-01</leafValues></_>
        <_>
          <internalNodes>
            0 -1 611 -3.3410168252885342e-03</internalNodes>
          <leafValues>
            -6.5286982059478760e-01 5.4858446121215820e-02</leafValues></_>
        <_>
          <internalNodes>
            0 -1 816 9.8126893863081932e-04</internalNodes>
          <leafValues>
            -1.2381090968847275e-01 2.8912502527236938e-01</leafValues></_>
        <_>
          <internalNodes>
            0 -1 651 -6.6142291761934757e-03</internalNodes>
          <leafValues>
            2.8119188547134399e-01 -2.0827938616275787e-01</leafValues></_>
        <_>
          <internalNodes>
            0 -1 590 -1.0992733587045223e-04</internalNodes>
          <leafValues>
            1.9033867120742798e-01 -1.9340899586677551e-01</leafValues></_>
        <_>
          <internalNodes>
            0 -1 542 -2.0556242670863867e-03</internalNodes>
          <leafValues>
            3.1426489353179932e-01 -1.3195486366748810e-01</leafValues></_>
        <_>
          <internalNodes>
            0 -1 245 -3.2752543687820435e-02</internalNodes>
          <leafValues>
            -3.5080483555793762e-01 9.5915041863918304e-02</leafValues></_>
        <_>
          <internalNodes>
            0 -1 705 1.8668357282876968e-02</internalNodes>
          <leafValues>
            -9.6022374927997589e-02 4.1193333268165588e-01</leafValues></_>
        <_>
          <internalNodes>
            0 -1 774 -6.8043391220271587e-03</internalNodes>
          <leafValues>
            2.6964989304542542e-01 -1.2248343229293823e-01</leafValues></_>
        <_>
          <internalNodes>
            0 -1 1094 -7.5150572229176760e-04</internalNodes>
          <leafValues>
            2.4962693452835083e-01 -1.4103905856609344e-01</leafValues></_>
        <_>
          <internalNodes>
            0 -1 594 8.0852396786212921e-03</internalNodes>
          <leafValues>
            5.7727012783288956e-02 -6.7563956975936890e-01</leafValues></_>
        <_>
          <internalNodes>
            0 -1 1011 2.3749830201268196e-02</internalNodes>
          <leafValues>
            -7.8953534364700317e-02 4.6258217096328735e-01</leafValues></_>
        <_>
          <internalNodes>
            0 -1 700 -1.3966750702820718e-04</internalNodes>
          <leafValues>
            1.7259179055690765e-01 -2.1739174425601959e-01</leafValues></_>
        <_>
          <internalNodes>
            0 -1 414 -9.9896118044853210e-03</internalNodes>
          <leafValues>
            -5.8377730846405029e-01 5.5803421884775162e-02</leafValues></_>
        <_>
          <internalNodes>
            0 -1 663 -3.4729205071926117e-02</internalNodes>
          <leafValues>
            -5.6185674667358398e-01 5.4937060922384262e-02</leafValues></_>
        <_>
          <internalNodes>
            0 -1 1262 2.4090069346129894e-03</internalNodes>
          <leafValues>
            5.1076922565698624e-02 -5.7722562551498413e-01</leafValues></_>
        <_>
          <internalNodes>
            0 -1 76 4.1253021918237209e-03</internalNodes>
          <leafValues>
            -1.2778507173061371e-01 2.6216131448745728e-01</leafValues></_>
        <_>
          <internalNodes>
            0 -1 367 7.4281281558796763e-04</internalNodes>
          <leafValues>
            -1.9340306520462036e-01 1.6325199604034424e-01</leafValues></_>
        <_>
          <internalNodes>
            0 -1 376 -2.7294998290017247e-04</internalNodes>
          <leafValues>
            1.9415161013603210e-01 -1.8331842124462128e-01</leafValues></_>
        <_>
          <internalNodes>
            0 -1 928 2.1284657996147871e-03</internalNodes>
          <leafValues>
            5.8951005339622498e-02 -6.4848357439041138e-01</leafValues></_>
        <_>
          <internalNodes>
            0 -1 930 1.3309093192219734e-03</internalNodes>
          <leafValues>
            -1.5664567053318024e-01 2.3652996122837067e-01</leafValues></_>
        <_>
          <internalNodes>
            0 -1 831 -2.8199958615005016e-03</internalNodes>
          <leafValues>
            -5.1828163862228394e-01 9.1589212417602539e-02</leafValues></_>
        <_>
          <internalNodes>
            0 -1 182 2.8278145939111710e-02</internalNodes>
          <leafValues>
            -7.1589857339859009e-02 5.1933133602142334e-01</leafValues></_>
        <_>
          <internalNodes>
            0 -1 202 -5.9086303226649761e-03</internalNodes>
          <leafValues>
            3.1887426972389221e-01 -1.3349850475788116e-01</leafValues></_>
        <_>
          <internalNodes>
            0 -1 252 1.2314965948462486e-02</internalNodes>
          <leafValues>
            5.1204521209001541e-02 -7.6011735200881958e-01</leafValues></_>
        <_>
          <internalNodes>
            0 -1 977 2.5647417642176151e-03</internalNodes>
          <leafValues>
            -1.2316758185625076e-01 2.8079900145530701e-01</leafValues></_>
        <_>
          <internalNodes>
            0 -1 984 -8.2735056057572365e-03</internalNodes>
          <leafValues>
            -6.9373714923858643e-01 5.0783332437276840e-02</leafValues></_>
        <_>
          <internalNodes>
            0 -1 769 -7.1550637949258089e-04</internalNodes>
          <leafValues>
            1.7743308842182159e-01 -1.9178390502929688e-01</leafValues></_>
        <_>
          <internalNodes>
            0 -1 760 2.3303406778723001e-03</internalNodes>
          <leafValues>
            -1.1390919983386993e-01 3.0089601874351501e-01</leafValues></_>
        <_>
          <internalNodes>
            0 -1 602 -1.0160414967685938e-03</internalNodes>
          <leafValues>
            2.2467352449893951e-01 -1.5187771618366241e-01</leafValues></_>
        <_>
          <internalNodes>
            0 -1 420 4.4309543445706367e-03</internalNodes>
          <leafValues>
            4.8382092267274857e-02 -7.2591173648834229e-01</leafValues></_>
        <_>
          <internalNodes>
            0 -1 491 1.3548998394981027e-03</internalNodes>
          <leafValues>
            -1.5861324965953827e-01 2.0996020734310150e-01</leafValues></_>
        <_>
          <internalNodes>
            0 -1 734 -1.9285213202238083e-03</internalNodes>
          <leafValues>
            2.3009595274925232e-01 -1.2734493613243103e-01</leafValues></_>
        <_>
          <internalNodes>
            0 -1 719 -2.0093631464987993e-03</internalNodes>
          <leafValues>
            2.7839848399162292e-01 -1.1534341424703598e-01</leafValues></_>
        <_>
          <internalNodes>
            0 -1 583 9.4352681189775467e-03</internalNodes>
          <leafValues>
            9.3626178801059723e-02 -3.7112393975257874e-01</leafValues></_>
        <_>
          <internalNodes>
            0 -1 226 -4.4973823241889477e-03</internalNodes>
          <leafValues>
            -4.0763860940933228e-01 7.9582996666431427e-02</leafValues></_>
        <_>
          <internalNodes>
            0 -1 653 -3.2196842133998871e-02</internalNodes>
          <leafValues>
            -5.9778100252151489e-01 5.5180657655000687e-02</leafValues></_>
        <_>
          <internalNodes>
            0 -1 250 1.4078121632337570e-02</internalNodes>
          <leafValues>
            -8.2500219345092773e-02 3.9996132254600525e-01</leafValues></_>
        <_>
          <internalNodes>
            0 -1 708 6.6570397466421127e-03</internalNodes>
          <leafValues>
            -9.2296712100505829e-02 3.7333908677101135e-01</leafValues></_>
        <_>
          <internalNodes>
            0 -1 965 3.8736578077077866e-02</internalNodes>
          <leafValues>
            -1.0387091338634491e-01 3.0263784527778625e-01</leafValues></_>
        <_>
          <internalNodes>
            0 -1 1093 -1.2245011329650879e-01</internalNodes>
          <leafValues>
            4.4654417037963867e-01 -6.7239314317703247e-02</leafValues></_>
        <_>
          <internalNodes>
            0 -1 443 2.3832968436181545e-03</internalNodes>
          <leafValues>
            7.1602471172809601e-02 -4.3932208418846130e-01</leafValues></_>
        <_>
          <internalNodes>
            0 -1 914 -1.4569491147994995e-02</internalNodes>
          <leafValues>
            -6.8335676193237305e-01 3.5889659076929092e-02</leafValues></_></weakClassifiers></_>
    <!-- stage 5 -->
    <_>
      <maxWeakCount>48</maxWeakCount>
      <stageThreshold>-7.9290008544921875e-01</stageThreshold>
      <weakClassifiers>
        <_>
          <internalNodes>
            0 -1 440 3.0569999944418669e-04</internalNodes>
          <leafValues>
            -5.7256989181041718e-02 4.6376165747642517e-01</leafValues></_>
        <_>
          <internalNodes>
            0 -1 596 1.3489115517586470e-03</internalNodes>
          <leafValues>
            -2.0125035941600800e-01 1.9263498485088348e-01</leafValues></_>
        <_>
          <internalNodes>
            0 -1 160 -2.1822201088070869e-03</internalNodes>
          <leafValues>
            2.3708994686603546e-01 -1.4695946872234344e-01</leafValues></_>
        <_>
          <internalNodes>
            0 -1 254 -2.9870735481381416e-02</internalNodes>
          <leafValues>
            3.0922546982765198e-01 -1.1591186374425888e-01</leafValues></_>
        <_>
          <internalNodes>
            0 -1 947 1.9875209778547287e-02</internalNodes>
          <leafValues>
            -1.3742104172706604e-01 3.8821172714233398e-01</leafValues></_>
        <_>
          <internalNodes>
            0 -1 419 -2.0676553249359131e-03</internalNodes>
          <leafValues>
            -7.3247194290161133e-01 4.3526105582714081e-02</leafValues></_>
        <_>
          <internalNodes>
            0 -1 435 -4.1761104948818684e-03</internalNodes>
          <leafValues>
            2.8321516513824463e-01 -1.2337557226419449e-01</leafValues></_>
        <_>
          <internalNodes>
            0 -1 734 -1.5229575801640749e-03</internalNodes>
          <leafValues>
            2.4527694284915924e-01 -1.6775889694690704e-01</leafValues></_>
        <_>
          <internalNodes>
            0 -1 526 -3.8991462439298630e-02</internalNodes>
          <leafValues>
            5.9463757276535034e-01 -6.4403712749481201e-02</leafValues></_>
        <_>
          <internalNodes>
            0 -1 163 -2.6868682354688644e-02</internalNodes>
          <leafValues>
            4.2373117804527283e-01 -8.1042394042015076e-02</leafValues></_>
        <_>
          <internalNodes>
            0 -1 598 -4.2623165063560009e-03</internalNodes>
          <leafValues>
            -3.6920392513275146e-01 1.0589028894901276e-01</leafValues></_>
        <_>
          <internalNodes>
            0 -1 969 -2.5046819355338812e-03</internalNodes>
          <leafValues>
            -4.9908879399299622e-01 7.3758475482463837e-02</leafValues></_>
        <_>
          <internalNodes>
            0 -1 777 1.2208744010422379e-04</internalNodes>
          <leafValues>
            -2.3150901496410370e-01 1.5803843736648560e-01</leafValues></_>
        <_>
          <internalNodes>
            0 -1 745 -6.1170425033196807e-04</internalNodes>
          <leafValues>
            2.6599112153053284e-01 -1.5967001020908356e-01</leafValues></_>
        <_>
          <internalNodes>
            0 -1 115 -1.8324438482522964e-02</internalNodes>
          <leafValues>
            4.9796003103256226e-01 -7.1407049894332886e-02</leafValues></_>
        <_>
          <internalNodes>
            0 -1 379 4.7268047928810120e-03</internalNodes>
          <leafValues>
            6.3039198517799377e-02 -6.0941380262374878e-01</leafValues></_>
        <_>
          <internalNodes>
            0 -1 827 -2.0028822124004364e-02</internalNodes>
          <leafValues>
            -5.4072284698486328e-01 5.8087810873985291e-02</leafValues></_>
        <_>
          <internalNodes>
            0 -1 516 9.2260330915451050e-02</internalNodes>
          <leafValues>
            5.0776142627000809e-02 -7.2122514247894287e-01</leafValues></_>
        <_>
          <internalNodes>
            0 -1 464 -5.4948090109974146e-04</internalNodes>
          <leafValues>
            2.0950214564800262e-01 -1.6089704632759094e-01</leafValues></_>
        <_>
          <internalNodes>
            0 -1 838 -2.2472324781119823e-03</internalNodes>
          <leafValues>
            1.8345217406749725e-01 -1.7674130201339722e-01</leafValues></_>
        <_>
          <internalNodes>
            0 -1 329 3.1315246596932411e-03</internalNodes>
          <leafValues>
            -1.2935580313205719e-01 2.7388554811477661e-01</leafValues></_>
        <_>
          <internalNodes>
            0 -1 777 1.9716452807188034e-03</internalNodes>
          <leafValues>
            6.4353555440902710e-02 -4.8692610859870911e-01</leafValues></_>
        <_>
          <internalNodes>
            0 -1 610 -2.0303439814597368e-03</internalNodes>
          <leafValues>
            1.7056766152381897e-01 -1.6679325699806213e-01</leafValues></_>
        <_>
          <internalNodes>
            0 -1 614 5.5162105709314346e-03</internalNodes>
          <leafValues>
            -9.5729544758796692e-02 3.5778999328613281e-01</leafValues></_>
        <_>
          <internalNodes>
            0 -1 923 1.1898104101419449e-02</internalNodes>
          <leafValues>
            -6.6429361701011658e-02 3.6841177940368652e-01</leafValues></_>
        <_>
          <internalNodes>
            0 -1 308 -5.2143498323857784e-03</internalNodes>
          <leafValues>
            -4.9440664052963257e-01 5.8843400329351425e-02</leafValues></_>
        <_>
          <internalNodes>
            0 -1 723 1.6938012093305588e-02</internalNodes>
          <leafValues>
            3.9444189518690109e-02 -6.3694608211517334e-01</leafValues></_>
        <_>
          <internalNodes>
            0 -1 703 -2.8442849870771170e-03</internalNodes>
          <leafValues>
            2.7664983272552490e-01 -1.1887432634830475e-01</leafValues></_>
        <_>
          <internalNodes>
            0 -1 766 2.3627083748579025e-02</internalNodes>
          <leafValues>
            -9.2698886990547180e-02 3.4842264652252197e-01</leafValues></_>
        <_>
          <internalNodes>
            0 -1 1060 -7.3377741500735283e-03</internalNodes>
          <leafValues>
            3.2620245218276978e-01 -1.1812631040811539e-01</leafValues></_>
        <_>
          <internalNodes>
            0 -1 1200 2.7900424320250750e-03</internalNodes>
          <leafValues>
            4.8718050122261047e-02 -6.0421001911163330e-01</leafValues></_>
        <_>
          <internalNodes>
            0 -1 193 3.1070066615939140e-03</internalNodes>
          <leafValues>
            -1.0608194023370743e-01 2.6657772064208984e-01</leafValues></_>
        <_>
          <internalNodes>
            0 -1 677 -9.8025370389223099e-03</internalNodes>
          <leafValues>
            2.1618115901947021e-01 -1.3950726389884949e-01</leafValues></_>
        <_>
          <internalNodes>
            0 -1 534 -1.5597388846799731e-03</internalNodes>
          <leafValues>
            -3.7922871112823486e-01 7.9688861966133118e-02</leafValues></_>
        <_>
          <internalNodes>
            0 -1 374 -1.5046990476548672e-02</internalNodes>
          <leafValues>
            -4.9678650498390198e-01 5.6980285793542862e-02</leafValues></_>
        <_>
          <internalNodes>
            0 -1 1248 5.6690315250307322e-04</internalNodes>
          <leafValues>
            1.3661791384220123e-01 -1.9509956240653992e-01</leafValues></_>
        <_>
          <internalNodes>
            0 -1 736 -6.1692681629210711e-04</internalNodes>
          <leafValues>
            1.4948283135890961e-01 -1.7684325575828552e-01</leafValues></_>
        <_>
          <internalNodes>
            0 -1 575 6.3758101314306259e-03</internalNodes>
          <leafValues>
            4.3036229908466339e-02 -6.8169450759887695e-01</leafValues></_>
        <_>
          <internalNodes>
            0 -1 892 4.3366625322960317e-04</internalNodes>
          <leafValues>
            -1.6568377614021301e-01 1.7173002660274506e-01</leafValues></_>
        <_>
          <internalNodes>
            0 -1 212 -1.6639031469821930e-02</internalNodes>
          <leafValues>
            3.4152051806449890e-01 -8.4001757204532623e-02</leafValues></_>
        <_>
          <internalNodes>
            0 -1 582 -1.5136403962969780e-02</internalNodes>
          <leafValues>
            -5.9751468896865845e-01 4.9502067267894745e-02</leafValues></_>
        <_>
          <internalNodes>
            0 -1 675 -1.7848245799541473e-02</internalNodes>
          <leafValues>
            4.2902609705924988e-01 -7.1972712874412537e-02</leafValues></_>
        <_>
          <internalNodes>
            0 -1 1044 -3.8330690003931522e-03</internalNodes>
          <leafValues>
            2.5103327631950378e-01 -1.1113885045051575e-01</leafValues></_>
        <_>
          <internalNodes>
            0 -1 792 6.5742678940296173e-02</internalNodes>
          <leafValues>
            5.0615273416042328e-02 -5.5182427167892456e-01</leafValues></_>
        <_>
          <internalNodes>
            0 -1 1016 -3.0407544225454330e-02</internalNodes>
          <leafValues>
            -4.8802754282951355e-01 5.2954584360122681e-02</leafValues></_>
        <_>
          <internalNodes>
            0 -1 175 -7.8207505866885185e-03</internalNodes>
          <leafValues>
            2.8835049271583557e-01 -8.9377984404563904e-02</leafValues></_>
        <_>
          <internalNodes>
            0 -1 35 2.6073697954416275e-03</internalNodes>
          <leafValues>
            6.9397263228893280e-02 -3.9891144633293152e-01</leafValues></_>
        <_>
          <internalNodes>
            0 -1 146 -2.0289599895477295e-02</internalNodes>
          <leafValues>
            -7.4267858266830444e-01 3.1032606959342957e-02</leafValues></_></weakClassifiers></_>
    <!-- stage 6 -->
    <_>
      <maxWeakCount>57</maxWeakCount>
      <stageThreshold>-7.8455448150634766e-01</stageThreshold>
      <weakClassifiers>
        <_>
          <internalNodes>
            0 -1 606 -2.0674758707173169e-04</internalNodes>
          <leafValues>
            4.8961699008941650e-01 -7.3229290544986725e-02</leafValues></_>
        <_>
          <internalNodes>
            0 -1 969 1.1034565977752209e-04</internalNodes>
          <leafValues>
            -2.2150531411170959e-01 1.9934128224849701e-01</leafValues></_>
        <_>
          <internalNodes>
            0 -1 891 -1.3937321491539478e-03</internalNodes>
          <leafValues>
            2.7066621184349060e-01 -1.1322221159934998e-01</leafValues></_>
        <_>
          <internalNodes>
            0 -1 474 2.4799911305308342e-02</internalNodes>
          <leafValues>
            -7.9368665814399719e-02 3.4059822559356689e-01</leafValues></_>
        <_>
          <internalNodes>
            0 -1 800 -1.1992999352514744e-03</internalNodes>
          <leafValues>
            2.2978155314922333e-01 -1.5582959353923798e-01</leafValues></_>
        <_>
          <internalNodes>
            0 -1 919 1.6781040467321873e-03</internalNodes>
          <leafValues>
            4.3890416622161865e-02 -5.2819252014160156e-01</leafValues></_>
        <_>
          <internalNodes>
            0 -1 867 2.9475928749889135e-03</internalNodes>
          <leafValues>
            1.1006016284227371e-01 -2.7791604399681091e-01</leafValues></_>
        <_>
          <internalNodes>
            0 -1 1054 7.5733331032097340e-03</internalNodes>
          <leafValues>
            -7.7239744365215302e-02 5.0182861089706421e-01</leafValues></_>
        <_>
          <internalNodes>
            0 -1 813 1.0875662416219711e-01</internalNodes>
          <leafValues>
            -1.1229188740253448e-01 3.1203147768974304e-01</leafValues></_>
        <_>
          <internalNodes>
            0 -1 476 1.8019065260887146e-02</internalNodes>
          <leafValues>
            -4.7392386943101883e-02 5.6576168537139893e-01</leafValues></_>
        <_>
          <internalNodes>
            0 -1 1090 -1.2668967247009277e-03</internalNodes>
          <leafValues>
            2.6322937011718750e-01 -1.4221103489398956e-01</leafValues></_>
        <_>
          <internalNodes>
            0 -1 829 2.5324536487460136e-02</internalNodes>
          <leafValues>
            -9.5574572682380676e-02 3.1374219059944153e-01</leafValues></_>
        <_>
          <internalNodes>
            0 -1 532 -1.6317417612299323e-03</internalNodes>
          <leafValues>
            1.8144629895687103e-01 -2.0442290604114532e-01</leafValues></_>
        <_>
          <internalNodes>
            0 -1 1042 7.6624564826488495e-04</internalNodes>
          <leafValues>
            -1.5292070806026459e-01 2.0382370054721832e-01</leafValues></_>
        <_>
          <internalNodes>
            0 -1 877 -5.6466031819581985e-03</internalNodes>
          <leafValues>
            -5.8511608839035034e-01 4.3833088129758835e-02</leafValues></_>
        <_>
          <internalNodes>
            0 -1 737 8.0065466463565826e-03</internalNodes>
          <leafValues>
            -5.8059610426425934e-02 4.4579675793647766e-01</leafValues></_>
        <_>
          <internalNodes>
            0 -1 244 1.6587903723120689e-02</internalNodes>
          <leafValues>
            3.9961293339729309e-02 -7.0196211338043213e-01</leafValues></_>
        <_>
          <internalNodes>
            0 -1 382 1.1264717904850841e-03</internalNodes>
          <leafValues>
            -1.8779249489307404e-01 1.3686393201351166e-01</leafValues></_>
        <_>
          <internalNodes>
            0 -1 685 7.6260562054812908e-03</internalNodes>
          <leafValues>
            -8.7300039827823639e-02 3.1398451328277588e-01</leafValues></_>
        <_>
          <internalNodes>
            0 -1 695 2.5760263670235872e-03</internalNodes>
          <leafValues>
            6.2054894864559174e-02 -5.1857107877731323e-01</leafValues></_>
        <_>
          <internalNodes>
            0 -1 819 1.6365868505090475e-03</internalNodes>
          <leafValues>
            -1.1202326416969299e-01 2.4218967556953430e-01</leafValues></_>
        <_>
          <internalNodes>
            0 -1 803 -3.1068837270140648e-03</internalNodes>
          <leafValues>
            2.9498839378356934e-01 -1.1919478327035904e-01</leafValues></_>
        <_>
          <internalNodes>
            0 -1 419 -1.1927153682336211e-03</internalNodes>
          <leafValues>
            -3.9042022824287415e-01 7.3726482689380646e-02</leafValues></_>
        <_>
          <internalNodes>
            0 -1 438 -5.2826013416051865e-03</internalNodes>
          <leafValues>
            2.5609800219535828e-01 -1.0969274491071701e-01</leafValues></_>
        <_>
          <internalNodes>
            0 -1 325 5.6819831952452660e-03</internalNodes>
          <leafValues>
            -6.9997832179069519e-02 4.5070204138755798e-01</leafValues></_>
        <_>
          <internalNodes>
            0 -1 230 6.9856113987043500e-04</internalNodes>
          <leafValues>
            1.1280846595764160e-01 -2.8980946540832520e-01</leafValues></_>
        <_>
          <internalNodes>
            0 -1 186 4.2514503002166748e-03</internalNodes>
          <leafValues>
            -1.0298632830381393e-01 2.7511265873908997e-01</leafValues></_>
        <_>
          <internalNodes>
            0 -1 192 -4.3164584785699844e-03</internalNodes>
          <leafValues>
            3.3329769968986511e-01 -8.6167916655540466e-02</leafValues></_>
        <_>
          <internalNodes>
            0 -1 409 5.3884568624198437e-03</internalNodes>
          <leafValues>
            6.5912932157516479e-02 -5.1265686750411987e-01</leafValues></_>
        <_>
          <internalNodes>
            0 -1 303 -2.7243169024586678e-03</internalNodes>
          <leafValues>
            2.1719427406787872e-01 -1.3209389150142670e-01</leafValues></_>
        <_>
          <internalNodes>
            0 -1 1105 -2.6121267583221197e-03</internalNodes>
          <leafValues>
            -4.0871483087539673e-01 7.7730230987071991e-02</leafValues></_>
        <_>
          <internalNodes>
            0 -1 496 1.5377940610051155e-02</internalNodes>
          <leafValues>
            -8.1889949738979340e-02 3.5995319485664368e-01</leafValues></_>
        <_>
          <internalNodes>
            0 -1 930 1.7409289721399546e-03</internalNodes>
          <leafValues>
            -1.3006569445133209e-01 2.4002720415592194e-01</leafValues></_>
        <_>
          <internalNodes>
            0 -1 1092 2.5657927617430687e-02</internalNodes>
          <leafValues>
            -8.9086256921291351e-02 3.3953639864921570e-01</leafValues></_>
        <_>
          <internalNodes>
            0 -1 831 -5.8853104710578918e-03</internalNodes>
          <leafValues>
            -8.3810204267501831e-01 3.8118306547403336e-02</leafValues></_>
        <_>
          <internalNodes>
            0 -1 896 -8.7645265739411116e-04</internalNodes>
          <leafValues>
            1.9133014976978302e-01 -1.5612025558948517e-01</leafValues></_>
        <_>
          <internalNodes>
            0 -1 593 5.0573563203215599e-03</internalNodes>
          <leafValues>
            6.1211466789245605e-02 -4.6751311421394348e-01</leafValues></_>
        <_>
          <internalNodes>
            0 -1 609 5.0653336074901745e-05</internalNodes>
          <leafValues>
            -2.7146786451339722e-01 9.7557380795478821e-02</leafValues></_>
        <_>
          <internalNodes>
            0 -1 305 1.9383748294785619e-03</internalNodes>
          <leafValues>
            -9.6493713557720184e-02 2.6653757691383362e-01</leafValues></_>
        <_>
          <internalNodes>
            0 -1 456 -1.0856583714485168e-02</internalNodes>
          <leafValues>
            -4.0523767471313477e-01 6.9082200527191162e-02</leafValues></_>
        <_>
          <internalNodes>
            0 -1 719 -3.3031967468559742e-03</internalNodes>
          <leafValues>
            2.9563441872596741e-01 -9.3249231576919556e-02</leafValues></_>
        <_>
          <internalNodes>
            0 -1 733 -1.0238219983875751e-03</internalNodes>
          <leafValues>
            2.3212800920009613e-01 -1.4602141082286835e-01</leafValues></_>
        <_>
          <internalNodes>
            0 -1 92 1.8333984538912773e-02</internalNodes>
          <leafValues>
            6.5671734511852264e-02 -4.5027613639831543e-01</leafValues></_>
        <_>
          <internalNodes>
            0 -1 695 -4.4426200911402702e-03</internalNodes>
          <leafValues>
            -7.0843857526779175e-01 3.8435604423284531e-02</leafValues></_>
        <_>
          <internalNodes>
            0 -1 678 3.4463040530681610e-02</internalNodes>
          <leafValues>
            -7.6056756079196930e-02 3.7281382083892822e-01</leafValues></_>
        <_>
          <internalNodes>
            0 -1 344 5.5092483758926392e-02</internalNodes>
          <leafValues>
            6.8923905491828918e-02 -4.2801770567893982e-01</leafValues></_>
        <_>
          <internalNodes>
            0 -1 425 1.5554886776953936e-03</internalNodes>
          <leafValues>
            -2.1868215501308441e-01 1.2644411623477936e-01</leafValues></_>
        <_>
          <internalNodes>
            0 -1 206 1.0899884626269341e-02</internalNodes>
          <leafValues>
            -6.4048022031784058e-02 4.9216434359550476e-01</leafValues></_>
        <_>
          <internalNodes>
            0 -1 535 -1.5355508774518967e-02</internalNodes>
          <leafValues>
            -6.0096853971481323e-01 5.2532408386468887e-02</leafValues></_>
        <_>
          <internalNodes>
            0 -1 1230 -7.5037866830825806e-02</internalNodes>
          <leafValues>
            7.1469074487686157e-01 -4.2468622326850891e-02</leafValues></_>
        <_>
          <internalNodes>
            0 -1 1015 5.1309159025549889e-03</internalNodes>
          <leafValues>
            4.4998358935117722e-02 -7.2674620151519775e-01</leafValues></_>
        <_>
          <internalNodes>
            0 -1 276 4.3299016542732716e-03</internalNodes>
          <leafValues>
            -8.3464615046977997e-02 3.5837629437446594e-01</leafValues></_>
        <_>
          <internalNodes>
            0 -1 479 4.4416990131139755e-03</internalNodes>
          <leafValues>
            -1.3643999397754669e-01 1.9345438480377197e-01</leafValues></_>
        <_>
          <internalNodes>
            0 -1 666 1.4452866744250059e-03</internalNodes>
          <leafValues>
            -1.0065517574548721e-01 2.7246943116188049e-01</leafValues></_>
        <_>
          <internalNodes>
            0 -1 768 1.2627703836187720e-04</internalNodes>
          <leafValues>
            -1.4855274558067322e-01 1.6803115606307983e-01</leafValues></_>
        <_>
          <internalNodes>
            0 -1 129 8.2210646942257881e-03</internalNodes>
          <leafValues>
            -8.2806251943111420e-02 2.9471638798713684e-01</leafValues></_>
        <_>
          <internalNodes>
            0 -1 127 -9.1698393225669861e-03</internalNodes>
          <leafValues>
            -4.6301311254501343e-01 5.7916957885026932e-02</leafValues></_></weakClassifiers></_>
    <!-- stage 7 -->
    <_>
      <maxWeakCount>35</maxWeakCount>
      <stageThreshold>-8.6228364706039429e-01</stageThreshold>
      <weakClassifiers>
        <_>
          <internalNodes>
            0 -1 600 -1.9514141604304314e-04</internalNodes>
          <leafValues>
            5.3980243206024170e-01 5.5512119084596634e-02</leafValues></_>
        <_>
          <internalNodes>
            0 -1 721 3.9878521114587784e-02</internalNodes>
          <leafValues>
            -4.5387461781501770e-02 7.9027026891708374e-01</leafValues></_>
        <_>
          <internalNodes>
            0 -1 835 -3.0757738277316093e-03</internalNodes>
          <leafValues>
            3.5832753777503967e-01 -2.0358952879905701e-01</leafValues></_>
        <_>
          <internalNodes>
            0 -1 861 -6.9629517383873463e-04</internalNodes>
          <leafValues>
            2.6947191357612610e-01 -1.7979896068572998e-01</leafValues></_>
        <_>
          <internalNodes>
            0 -1 342 -2.4797443300485611e-02</internalNodes>
          <leafValues>
            8.2728374004364014e-01 -4.7987397760152817e-02</leafValues></_>
        <_>
          <internalNodes>
            0 -1 243 -1.3233004137873650e-02</internalNodes>
          <leafValues>
            5.2285426855087280e-01 -1.1026683449745178e-01</leafValues></_>
        <_>
          <internalNodes>
            0 -1 566 3.8884673267602921e-03</internalNodes>
          <leafValues>
            -1.6388590633869171e-01 3.5790032148361206e-01</leafValues></_>
        <_>
          <internalNodes>
            0 -1 1120 -7.5222621671855450e-03</internalNodes>
          <leafValues>
            -8.7991583347320557e-01 6.5983332693576813e-02</leafValues></_>
        <_>
          <internalNodes>
            0 -1 955 5.7542607188224792e-02</internalNodes>
          <leafValues>
            1.3448767364025116e-01 -3.6769896745681763e-01</leafValues></_>
        <_>
          <internalNodes>
            0 -1 628 4.0948524838313460e-04</internalNodes>
          <leafValues>
            -2.6134830713272095e-01 2.1219882369041443e-01</leafValues></_>
        <_>
          <internalNodes>
            0 -1 520 4.1628413600847125e-04</internalNodes>
          <leafValues>
            -1.9819913804531097e-01 2.4089339375495911e-01</leafValues></_>
        <_>
          <internalNodes>
            0 -1 1097 -1.4169130008667707e-03</internalNodes>
          <leafValues>
            3.0566278100013733e-01 -1.5555568039417267e-01</leafValues></_>
        <_>
          <internalNodes>
            0 -1 1186 2.5519342161715031e-03</internalNodes>
          <leafValues>
            1.5510191023349762e-01 -3.3673506975173950e-01</leafValues></_>
        <_>
          <internalNodes>
            0 -1 1014 -7.1144034154713154e-04</internalNodes>
          <leafValues>
            2.8875845670700073e-01 -1.8486924469470978e-01</leafValues></_>
        <_>
          <internalNodes>
            0 -1 1237 -1.1424827389419079e-03</internalNodes>
          <leafValues>
            3.4565216302871704e-01 -1.6564682126045227e-01</leafValues></_>
        <_>
          <internalNodes>
            0 -1 240 6.8494555307552218e-04</internalNodes>
          <leafValues>
            -1.6461911797523499e-01 2.7664595842361450e-01</leafValues></_>
        <_>
          <internalNodes>
            0 -1 41 2.0385002717375755e-03</internalNodes>
          <leafValues>
            9.9217176437377930e-02 -5.5604517459869385e-01</leafValues></_>
        <_>
          <internalNodes>
            0 -1 143 -1.5368358232080936e-02</internalNodes>
          <leafValues>
            -7.4021643400192261e-01 5.2142571657896042e-02</leafValues></_>
        <_>
          <internalNodes>
            0 -1 623 -1.0895798914134502e-03</internalNodes>
          <leafValues>
            3.0706435441970825e-01 -1.6305194795131683e-01</leafValues></_>
        <_>
          <internalNodes>
            0 -1 997 -1.8890958745032549e-03</internalNodes>
          <leafValues>
            -3.1747177243232727e-01 1.7431707680225372e-01</leafValues></_>
        <_>
          <internalNodes>
            0 -1 1003 5.2025500917807221e-04</internalNodes>
          <leafValues>
            -1.6379582881927490e-01 3.0248612165451050e-01</leafValues></_>
        <_>
          <internalNodes>
            0 -1 788 -1.1857210192829370e-03</internalNodes>
          <leafValues>
            -3.0018234252929688e-01 1.7674495279788971e-01</leafValues></_>
        <_>
          <internalNodes>
            0 -1 91 -3.8784167263656855e-03</internalNodes>
          <leafValues>
            3.1518578529357910e-01 -1.6310758888721466e-01</leafValues></_>
        <_>
          <internalNodes>
            0 -1 1139 8.7149590253829956e-03</internalNodes>
          <leafValues>
            -6.9424942135810852e-02 7.4745351076126099e-01</leafValues></_>
        <_>
          <internalNodes>
            0 -1 416 -3.3254036679863930e-03</internalNodes>
          <leafValues>
            3.9561265707015991e-01 -1.2224563956260681e-01</leafValues></_>
        <_>
          <internalNodes>
            0 -1 927 -7.4466294609010220e-04</internalNodes>
          <leafValues>
            3.9268335700035095e-01 -1.2685316801071167e-01</leafValues></_>
        <_>
          <internalNodes>
            0 -1 483 -1.4653762802481651e-02</internalNodes>
          <leafValues>
            4.4357216358184814e-01 -1.3082854449748993e-01</leafValues></_>
        <_>
          <internalNodes>
            0 -1 1009 -6.7512348294258118e-02</internalNodes>
          <leafValues>
            8.3420932292938232e-01 -5.7767115533351898e-02</leafValues></_>
        <_>
          <internalNodes>
            0 -1 362 -3.1603887677192688e-02</internalNodes>
          <leafValues>
            -4.6056789159774780e-01 1.2429687380790710e-01</leafValues></_>
        <_>
          <internalNodes>
            0 -1 197 -2.0868694409728050e-03</internalNodes>
          <leafValues>
            3.1400060653686523e-01 -1.7507095634937286e-01</leafValues></_>
        <_>
          <internalNodes>
            0 -1 429 -3.5098637454211712e-03</internalNodes>
          <leafValues>
            -7.4937313795089722e-01 8.0475695431232452e-02</leafValues></_>
        <_>
          <internalNodes>
            0 -1 231 4.0443073958158493e-03</internalNodes>
          <leafValues>
            -1.3033501803874969e-01 4.5559570193290710e-01</leafValues></_>
        <_>
          <internalNodes>
            0 -1 876 1.7102780111599714e-04</internalNodes>
          <leafValues>
            -2.1278207004070282e-01 2.7019527554512024e-01</leafValues></_>
        <_>
          <internalNodes>
            0 -1 884 -3.9949969504959881e-04</internalNodes>
          <leafValues>
            3.6273494362831116e-01 -1.5720768272876740e-01</leafValues></_>
        <_>
          <internalNodes>
            0 -1 60 2.2462573833763599e-03</internalNodes>
          <leafValues>
            1.1956878751516342e-01 -5.3067231178283691e-01</leafValues></_></weakClassifiers></_>
    <!-- stage 8 -->
    <_>
      <maxWeakCount>45</maxWeakCount>
      <stageThreshold>-7.0834499597549438e-01</stageThreshold>
      <weakClassifiers>
        <_>
          <internalNodes>
            0 -1 1051 8.1350014079362154e-04</internalNodes>
          <leafValues>
            1.2361110746860504e-01 5.2692306041717529e-01</leafValues></_>
        <_>
          <internalNodes>
            0 -1 189 -2.4800518527626991e-02</internalNodes>
          <leafValues>
            4.5446693897247314e-01 -6.8858660757541656e-02</leafValues></_>
        <_>
          <internalNodes>
            0 -1 301 -1.7514834180474281e-03</internalNodes>
          <leafValues>
            3.8180691003799438e-01 -7.4811398983001709e-02</leafValues></_>
        <_>
          <internalNodes>
            0 -1 400 -2.1393948700278997e-03</internalNodes>
          <leafValues>
            -3.0256679654121399e-01 1.1295832693576813e-01</leafValues></_>
        <_>
          <internalNodes>
            0 -1 831 2.8247381560504436e-03</internalNodes>
          <leafValues>
            5.6193325668573380e-02 -5.3942292928695679e-01</leafValues></_>
        <_>
          <internalNodes>
            0 -1 652 1.5310022048652172e-02</internalNodes>
          <leafValues>
            -8.7612375617027283e-02 3.8879030942916870e-01</leafValues></_>
        <_>
          <internalNodes>
            0 -1 371 2.0613721571862698e-03</internalNodes>
          <leafValues>
            1.3385531306266785e-01 -3.1345987319946289e-01</leafValues></_>
        <_>
          <internalNodes>
            0 -1 618 1.9724898040294647e-02</internalNodes>
          <leafValues>
            -1.1874483525753021e-01 3.6473917961120605e-01</leafValues></_>
        <_>
          <internalNodes>
            0 -1 408 -6.5785367041826248e-03</internalNodes>
          <leafValues>
            -7.7392822504043579e-01 5.8516219258308411e-02</leafValues></_>
        <_>
          <internalNodes>
            0 -1 357 1.1396158486604691e-02</internalNodes>
          <leafValues>
            -1.1651697754859924e-01 2.9872190952301025e-01</leafValues></_>
        <_>
          <internalNodes>
            0 -1 819 1.4406765112653375e-03</internalNodes>
          <leafValues>
            -1.4791274070739746e-01 2.8906279802322388e-01</leafValues></_>
        <_>
          <internalNodes>
            0 -1 522 8.6722755804657936e-03</internalNodes>
          <leafValues>
            5.2579335868358612e-02 -7.2290605306625366e-01</leafValues></_>
        <_>
          <internalNodes>
            0 -1 1149 4.9124401994049549e-03</internalNodes>
          <leafValues>
            6.6281177103519440e-02 -3.6213243007659912e-01</leafValues></_>
        <_>
          <internalNodes>
            0 -1 1070 -1.3281165156513453e-03</internalNodes>
          <leafValues>
            2.4951559305191040e-01 -1.2452527135610580e-01</leafValues></_>
        <_>
          <internalNodes>
            0 -1 423 -9.5702597172930837e-04</internalNodes>
          <leafValues>
            1.7853078246116638e-01 -1.7469346523284912e-01</leafValues></_>
        <_>
          <internalNodes>
            0 -1 200 -4.7931214794516563e-04</internalNodes>
          <leafValues>
            2.0097307860851288e-01 -1.8530416488647461e-01</leafValues></_>
        <_>
          <internalNodes>
            0 -1 432 6.9430097937583923e-03</internalNodes>
          <leafValues>
            7.5775764882564545e-02 -4.7061938047409058e-01</leafValues></_>
        <_>
          <internalNodes>
            0 -1 539 2.3049483075737953e-02</internalNodes>
          <leafValues>
            -7.0794813334941864e-02 5.7338905334472656e-01</leafValues></_>
        <_>
          <internalNodes>
            0 -1 1008 1.3341752812266350e-02</internalNodes>
          <leafValues>
            -9.2971965670585632e-02 3.4479466080665588e-01</leafValues></_>
        <_>
          <internalNodes>
            0 -1 553 -3.9411187171936035e-02</internalNodes>
          <leafValues>
            3.3790743350982666e-01 -1.1159818619489670e-01</leafValues></_>
        <_>
          <internalNodes>
            0 -1 543 8.7722968310117722e-03</internalNodes>
          <leafValues>
            -1.0957974940538406e-01 3.0878120660781860e-01</leafValues></_>
        <_>
          <internalNodes>
            0 -1 633 -3.4957043826580048e-03</internalNodes>
          <leafValues>
            -6.7283928394317627e-01 5.5097881704568863e-02</leafValues></_>
        <_>
          <internalNodes>
            0 -1 931 -8.0106472596526146e-03</internalNodes>
          <leafValues>
            -5.8959269523620605e-01 4.7999065369367599e-02</leafValues></_>
        <_>
          <internalNodes>
            0 -1 348 6.6961534321308136e-04</internalNodes>
          <leafValues>
            -2.0109027624130249e-01 1.5756061673164368e-01</leafValues></_>
        <_>
          <internalNodes>
            0 -1 236 2.3696644231677055e-02</internalNodes>
          <leafValues>
            -6.9523356854915619e-02 4.9129021167755127e-01</leafValues></_>
        <_>
          <internalNodes>
            0 -1 931 1.1122472584247589e-02</internalNodes>
          <leafValues>
            5.0875984132289886e-02 -7.5821483135223389e-01</leafValues></_>
        <_>
          <internalNodes>
            0 -1 1021 2.4417024105787277e-03</internalNodes>
          <leafValues>
            -1.2037666887044907e-01 2.7715879678726196e-01</leafValues></_>
        <_>
          <internalNodes>
            0 -1 767 8.1336055882275105e-04</internalNodes>
          <leafValues>
            -1.9404526054859161e-01 1.7073293030261993e-01</leafValues></_>
        <_>
          <internalNodes>
            0 -1 720 2.1774615161120892e-03</internalNodes>
          <leafValues>
            -1.0680200904607773e-01 2.6951178908348083e-01</leafValues></_>
        <_>
          <internalNodes>
            0 -1 970 3.9598885923624039e-03</internalNodes>
          <leafValues>
            7.1137972176074982e-02 -4.0865916013717651e-01</leafValues></_>
        <_>
          <internalNodes>
            0 -1 1125 -1.4389848802238703e-03</internalNodes>
          <leafValues>
            3.4534591436386108e-01 -9.7942814230918884e-02</leafValues></_>
        <_>
          <internalNodes>
            0 -1 1054 -4.7039780765771866e-03</internalNodes>
          <leafValues>
            3.0544373393058777e-01 -9.8675169050693512e-02</leafValues></_>
        <_>
          <internalNodes>
            0 -1 1134 -1.2163989245891571e-02</internalNodes>
          <leafValues>
            -3.8448509573936462e-01 7.7280722558498383e-02</leafValues></_>
        <_>
          <internalNodes>
            0 -1 751 -9.6041541546583176e-03</internalNodes>
          <leafValues>
            -4.9295544624328613e-01 6.4363241195678711e-02</leafValues></_>
        <_>
          <internalNodes>
            0 -1 591 5.6222442071884871e-04</internalNodes>
          <leafValues>
            -1.8020749092102051e-01 1.6080068051815033e-01</leafValues></_>
        <_>
          <internalNodes>
            0 -1 239 8.6783640086650848e-02</internalNodes>
          <leafValues>
            4.3189775198698044e-02 -6.3038545846939087e-01</leafValues></_>
        <_>
          <internalNodes>
            0 -1 609 1.9759556744247675e-03</internalNodes>
          <leafValues>
            1.1009790003299713e-01 -2.5110986828804016e-01</leafValues></_>
        <_>
          <internalNodes>
            0 -1 621 4.9197277985513210e-04</internalNodes>
          <leafValues>
            -2.3320369422435760e-01 1.6013391315937042e-01</leafValues></_>
        <_>
          <internalNodes>
            0 -1 627 2.6256535202264786e-02</internalNodes>
          <leafValues>
            4.6246051788330078e-02 -6.0640019178390503e-01</leafValues></_>
        <_>
          <internalNodes>
            0 -1 861 -4.3241222738288343e-04</internalNodes>
          <leafValues>
            1.4510235190391541e-01 -1.9566012918949127e-01</leafValues></_>
        <_>
          <internalNodes>
            0 -1 805 -9.1570001095533371e-03</internalNodes>
          <leafValues>
            -5.1102203130722046e-01 6.1049040406942368e-02</leafValues></_>
        <_>
          <internalNodes>
            0 -1 496 1.1057055555284023e-02</internalNodes>
          <leafValues>
            -1.0145332664251328e-01 2.9208210110664368e-01</leafValues></_>
        <_>
          <internalNodes>
            0 -1 789 2.3215051623992622e-04</internalNodes>
          <leafValues>
            1.6385062038898468e-01 -2.1426801383495331e-01</leafValues></_>
        <_>
          <internalNodes>
            0 -1 74 -3.5376052837818861e-03</internalNodes>
          <leafValues>
            -5.3348439931869507e-01 5.1149975508451462e-02</leafValues></_>
        <_>
          <internalNodes>
            0 -1 861 -3.6080565769225359e-03</internalNodes>
          <leafValues>
            -5.0789272785186768e-01 5.2119288593530655e-02</leafValues></_></weakClassifiers></_>
    <!-- stage 9 -->
    <_>
      <maxWeakCount>53</maxWeakCount>
      <stageThreshold>-6.2754046916961670e-01</stageThreshold>
      <weakClassifiers>
        <_>
          <internalNodes>
            0 -1 622 -4.7758035361766815e-04</internalNodes>
          <leafValues>
            4.7923323512077332e-01 8.9126557111740112e-02</leafValues></_>
        <_>
          <internalNodes>
            0 -1 743 -5.3998397197574377e-04</internalNodes>
          <leafValues>
            2.4172471463680267e-01 -1.4203529059886932e-01</leafValues></_>
        <_>
          <internalNodes>
            0 -1 1060 -1.4592691324651241e-02</internalNodes>
          <leafValues>
            4.0213841199874878e-01 -7.2788447141647339e-02</leafValues></_>
        <_>
          <internalNodes>
            0 -1 442 4.1400096379220486e-03</internalNodes>
          <leafValues>
            2.6569485664367676e-02 -5.8734709024429321e-01</leafValues></_>
        <_>
          <internalNodes>
            0 -1 1063 -1.0084074456244707e-03</internalNodes>
          <leafValues>
            1.7977648973464966e-01 -1.7842367291450500e-01</leafValues></_>
        <_>
          <internalNodes>
            0 -1 874 3.6879829131066799e-03</internalNodes>
          <leafValues>
            6.5260849893093109e-02 -7.4899566173553467e-01</leafValues></_>
        <_>
          <internalNodes>
            0 -1 366 6.0869526350870728e-04</internalNodes>
          <leafValues>
            -1.7689356207847595e-01 1.6002470254898071e-01</leafValues></_>
        <_>
          <internalNodes>
            0 -1 242 -6.7093716934323311e-03</internalNodes>
          <leafValues>
            3.0056118965148926e-01 -1.1363328248262405e-01</leafValues></_>
        <_>
          <internalNodes>
            0 -1 833 1.4133835211396217e-03</internalNodes>
          <leafValues>
            1.1201939731836319e-01 -3.2965758442878723e-01</leafValues></_>
        <_>
          <internalNodes>
            0 -1 1167 1.4292300911620259e-03</internalNodes>
          <leafValues>
            7.2688706219196320e-02 -3.7472987174987793e-01</leafValues></_>
        <_>
          <internalNodes>
            0 -1 432 -3.7066438235342503e-03</internalNodes>
          <leafValues>
            -3.9511057734489441e-01 6.6458277404308319e-02</leafValues></_>
        <_>
          <internalNodes>
            0 -1 848 -1.8409231677651405e-02</internalNodes>
          <leafValues>
            3.9379698038101196e-01 -5.6106723845005035e-02</leafValues></_>
        <_>
          <internalNodes>
            0 -1 173 2.0295150578022003e-02</internalNodes>
          <leafValues>
            -1.5086451172828674e-01 2.1233369410037994e-01</leafValues></_>
        <_>
          <internalNodes>
            0 -1 421 1.1746685486286879e-03</internalNodes>
          <leafValues>
            9.8399206995964050e-02 -2.6858392357826233e-01</leafValues></_>
        <_>
          <internalNodes>
            0 -1 724 6.5079852938652039e-02</internalNodes>
          <leafValues>
            -5.0923854112625122e-02 6.2462913990020752e-01</leafValues></_>
        <_>
          <internalNodes>
            0 -1 448 3.0109756626188755e-03</internalNodes>
          <leafValues>
            7.8087098896503448e-02 -3.7533783912658691e-01</leafValues></_>
        <_>
          <internalNodes>
            0 -1 631 1.3218387030065060e-03</internalNodes>
          <leafValues>
            -1.0886904597282410e-01 2.3175527155399323e-01</leafValues></_>
        <_>
          <internalNodes>
            0 -1 843 -3.6793793551623821e-03</internalNodes>
          <leafValues>
            -4.6133029460906982e-01 5.3491611033678055e-02</leafValues></_>
        <_>
          <internalNodes>
            0 -1 876 5.9268018230795860e-04</internalNodes>
          <leafValues>
            -1.1631271988153458e-01 2.0369565486907959e-01</leafValues></_>
        <_>
          <internalNodes>
            0 -1 734 -2.1710747387260199e-03</internalNodes>
          <leafValues>
            2.2370524704456329e-01 -1.2553870677947998e-01</leafValues></_>
        <_>
          <internalNodes>
            0 -1 302 3.7323967553675175e-03</internalNodes>
          <leafValues>
            -7.4058227241039276e-02 3.7519326806068420e-01</leafValues></_>
        <_>
          <internalNodes>
            0 -1 590 -2.1931770606897771e-04</internalNodes>
          <leafValues>
            1.5821419656276703e-01 -1.9195093214511871e-01</leafValues></_>
        <_>
          <internalNodes>
            0 -1 708 1.0989703238010406e-02</internalNodes>
          <leafValues>
            -6.3618794083595276e-02 4.4145870208740234e-01</leafValues></_>
        <_>
          <internalNodes>
            0 -1 88 3.2596536912024021e-03</internalNodes>
          <leafValues>
            -1.4842583239078522e-01 2.0113946497440338e-01</leafValues></_>
        <_>
          <internalNodes>
            0 -1 1095 3.3002425916492939e-03</internalNodes>
          <leafValues>
            4.2538966983556747e-02 -6.1042052507400513e-01</leafValues></_>
        <_>
          <internalNodes>
            0 -1 660 -3.5686013288795948e-03</internalNodes>
          <leafValues>
            -3.1306988000869751e-01 7.6637871563434601e-02</leafValues></_>
        <_>
          <internalNodes>
            0 -1 150 1.7286513000726700e-02</internalNodes>
          <leafValues>
            5.1060657948255539e-02 -5.5462956428527832e-01</leafValues></_>
        <_>
          <internalNodes>
            0 -1 821 -3.3295396715402603e-03</internalNodes>
          <leafValues>
            2.6898226141929626e-01 -9.9002629518508911e-02</leafValues></_>
        <_>
          <internalNodes>
            0 -1 819 1.6731936484575272e-03</internalNodes>
          <leafValues>
            -1.2740576267242432e-01 2.4334053695201874e-01</leafValues></_>
        <_>
          <internalNodes>
            0 -1 375 3.5577320959419012e-03</internalNodes>
          <leafValues>
            3.9423882961273193e-02 -6.2289077043533325e-01</leafValues></_>
        <_>
          <internalNodes>
            0 -1 954 4.4421446509659290e-03</internalNodes>
          <leafValues>
            -1.0192260891199112e-01 2.2448195517063141e-01</leafValues></_>
        <_>
          <internalNodes>
            0 -1 234 1.9545465707778931e-01</internalNodes>
          <leafValues>
            6.0133267194032669e-02 -5.2214157581329346e-01</leafValues></_>
        <_>
          <internalNodes>
            0 -1 903 4.4161691330373287e-03</internalNodes>
          <leafValues>
            -7.2775207459926605e-02 3.5452955961227417e-01</leafValues></_>
        <_>
          <internalNodes>
            0 -1 256 -1.4527918770909309e-02</internalNodes>
          <leafValues>
            -6.2687122821807861e-01 3.9754647761583328e-02</leafValues></_>
        <_>
          <internalNodes>
            0 -1 632 -1.3194847851991653e-02</internalNodes>
          <leafValues>
            -2.8325334191322327e-01 7.6612226665019989e-02</leafValues></_>
        <_>
          <internalNodes>
            0 -1 994 7.9237092286348343e-03</internalNodes>
          <leafValues>
            6.6302634775638580e-02 -4.3435716629028320e-01</leafValues></_>
        <_>
          <internalNodes>
            0 -1 978 2.0473576150834560e-03</internalNodes>
          <leafValues>
            -1.2726227939128876e-01 1.9479809701442719e-01</leafValues></_>
        <_>
          <internalNodes>
            0 -1 1168 3.1068995594978333e-03</internalNodes>
          <leafValues>
            5.1165096461772919e-02 -4.7732061147689819e-01</leafValues></_>
        <_>
          <internalNodes>
            0 -1 1148 -4.7565950080752373e-03</internalNodes>
          <leafValues>
            -3.6970242857933044e-01 5.8600939810276031e-02</leafValues></_>
        <_>
          <internalNodes>
            0 -1 1160 2.0413356833159924e-03</internalNodes>
          <leafValues>
            -5.7615827769041061e-02 3.7837702035903931e-01</leafValues></_>
        <_>
          <internalNodes>
            0 -1 47 2.1645792294293642e-03</internalNodes>
          <leafValues>
            9.4355508685112000e-02 -2.4793201684951782e-01</leafValues></_>
        <_>
          <internalNodes>
            0 -1 661 6.5996393561363220e-02</internalNodes>
          <leafValues>
            4.3097030371427536e-02 -4.7776043415069580e-01</leafValues></_>
        <_>
          <internalNodes>
            0 -1 1053 3.1898752786219120e-03</internalNodes>
          <leafValues>
            -8.6346000432968140e-02 2.8236806392669678e-01</leafValues></_>
        <_>
          <internalNodes>
            0 -1 934 -4.2110728099942207e-03</internalNodes>
          <leafValues>
            -2.7240720391273499e-01 8.8467322289943695e-02</leafValues></_>
        <_>
          <internalNodes>
            0 -1 377 -2.7336073108017445e-03</internalNodes>
          <leafValues>
            -4.4731265306472778e-01 5.3423583507537842e-02</leafValues></_>
        <_>
          <internalNodes>
            0 -1 419 -3.0135030392557383e-03</internalNodes>
          <leafValues>
            -7.9022198915481567e-01 2.3649761453270912e-02</leafValues></_>
        <_>
          <internalNodes>
            0 -1 856 -1.4217416755855083e-03</internalNodes>
          <leafValues>
            2.0019325613975525e-01 -1.1549666523933411e-01</leafValues></_>
        <_>
          <internalNodes>
            0 -1 1056 -3.0693616718053818e-03</internalNodes>
          <leafValues>
            1.9743953645229340e-01 -1.2160205841064453e-01</leafValues></_>
        <_>
          <internalNodes>
            0 -1 251 1.0946713387966156e-01</internalNodes>
          <leafValues>
            3.3367659896612167e-02 -7.3269987106323242e-01</leafValues></_>
        <_>
          <internalNodes>
            0 -1 93 -1.5114806592464447e-03</internalNodes>
          <leafValues>
            1.9965504109859467e-01 -1.1789589375257492e-01</leafValues></_>
        <_>
          <internalNodes>
            0 -1 796 -2.4168446660041809e-01</internalNodes>
          <leafValues>
            4.7036913037300110e-01 -4.6990092843770981e-02</leafValues></_>
        <_>
          <internalNodes>
            0 -1 1096 -1.5836003876756877e-04</internalNodes>
          <leafValues>
            1.7119720578193665e-01 -1.5422475337982178e-01</leafValues></_>
        <_>
          <internalNodes>
            0 -1 555 1.8152149021625519e-01</internalNodes>
          <leafValues>
            -6.7087471485137939e-02 4.1750919818878174e-01</leafValues></_></weakClassifiers></_>
    <!-- stage 10 -->
    <_>
      <maxWeakCount>48</maxWeakCount>
      <stageThreshold>-8.5785669088363647e-01</stageThreshold>
      <weakClassifiers>
        <_>
          <internalNodes>
            0 -1 600 3.9572780951857567e-04</internalNodes>
          <leafValues>
            5.0185084342956543e-01 4.5987375080585480e-02</leafValues></_>
        <_>
          <internalNodes>
            0 -1 1037 1.5411220490932465e-02</internalNodes>
          <leafValues>
            -3.7966586649417877e-02 7.2088736295700073e-01</leafValues></_>
        <_>
          <internalNodes>
            0 -1 548 -8.5373017936944962e-03</internalNodes>
          <leafValues>
            4.0657839179039001e-01 -1.5347643196582794e-01</leafValues></_>
        <_>
          <internalNodes>
            0 -1 1064 -1.5436843968927860e-03</internalNodes>
          <leafValues>
            2.9435843229293823e-01 -9.8644688725471497e-02</leafValues></_>
        <_>
          <internalNodes>
            0 -1 531 -2.1598408930003643e-03</internalNodes>
          <leafValues>
            1.7369414865970612e-01 -2.0490911602973938e-01</leafValues></_>
        <_>
          <internalNodes>
            0 -1 609 4.2948170448653400e-04</internalNodes>
          <leafValues>
            -2.9168409109115601e-01 1.4323194324970245e-01</leafValues></_>
        <_>
          <internalNodes>
            0 -1 591 3.2505297567695379e-03</internalNodes>
          <leafValues>
            6.9926753640174866e-02 -5.3470450639724731e-01</leafValues></_>
        <_>
          <internalNodes>
            0 -1 478 4.9582920037209988e-03</internalNodes>
          <leafValues>
            -1.4142468571662903e-01 2.4103939533233643e-01</leafValues></_>
        <_>
          <internalNodes>
            0 -1 974 -1.9521990325301886e-03</internalNodes>
          <leafValues>
            -3.8633972406387329e-01 8.9586317539215088e-02</leafValues></_>
        <_>
          <internalNodes>
            0 -1 1182 4.8740031197667122e-03</internalNodes>
          <leafValues>
            4.7837074846029282e-02 -7.0814394950866699e-01</leafValues></_>
        <_>
          <internalNodes>
            0 -1 584 1.1014182120561600e-02</internalNodes>
          <leafValues>
            -7.7963910996913910e-02 5.0445204973220825e-01</leafValues></_>
        <_>
          <internalNodes>
            0 -1 587 -3.9432328194379807e-03</internalNodes>
          <leafValues>
            3.0532157421112061e-01 -1.4626763761043549e-01</leafValues></_>
        <_>
          <internalNodes>
            0 -1 386 2.6364335790276527e-03</internalNodes>
          <leafValues>
            -1.1336080729961395e-01 2.9068961739540100e-01</leafValues></_>
        <_>
          <internalNodes>
            0 -1 524 -2.7651623822748661e-03</internalNodes>
          <leafValues>
            2.0165844261646271e-01 -1.9220080971717834e-01</leafValues></_>
        <_>
          <internalNodes>
            0 -1 1247 -2.5981036014854908e-04</internalNodes>
          <leafValues>
            -2.2445061802864075e-01 1.5418003499507904e-01</leafValues></_>
        <_>
          <internalNodes>
            0 -1 452 1.7366565763950348e-02</internalNodes>
          <leafValues>
            -9.0133875608444214e-02 3.7585419416427612e-01</leafValues></_>
        <_>
          <internalNodes>
            0 -1 606 -5.6554860202595592e-04</internalNodes>
          <leafValues>
            1.6523642838001251e-01 -2.1282476186752319e-01</leafValues></_>
        <_>
          <internalNodes>
            0 -1 65 4.8868665471673012e-03</internalNodes>
          <leafValues>
            -1.2020409107208252e-01 2.8856581449508667e-01</leafValues></_>
        <_>
          <internalNodes>
            0 -1 122 -1.7909215763211250e-02</internalNodes>
          <leafValues>
            3.3922901749610901e-01 -9.8069615662097931e-02</leafValues></_>
        <_>
          <internalNodes>
            0 -1 1175 2.8199427761137486e-03</internalNodes>
          <leafValues>
            6.0116671025753021e-02 -5.9306281805038452e-01</leafValues></_>
        <_>
          <internalNodes>
            0 -1 745 -9.1027736198157072e-04</internalNodes>
          <leafValues>
            2.6910775899887085e-01 -1.3549999892711639e-01</leafValues></_>
        <_>
          <internalNodes>
            0 -1 334 1.3443904928863049e-02</internalNodes>
          <leafValues>
            -3.9129063487052917e-02 8.0249083042144775e-01</leafValues></_>
        <_>
          <internalNodes>
            0 -1 868 -1.2058755382895470e-02</internalNodes>
          <leafValues>
            -4.9594008922576904e-01 8.5984386503696442e-02</leafValues></_>
        <_>
          <internalNodes>
            0 -1 1122 -8.3356007235124707e-04</internalNodes>
          <leafValues>
            2.6035383343696594e-01 -1.4210686087608337e-01</leafValues></_>
        <_>
          <internalNodes>
            0 -1 1073 -5.9909857809543610e-03</internalNodes>
          <leafValues>
            3.9364326000213623e-01 -9.3030631542205811e-02</leafValues></_>
        <_>
          <internalNodes>
            0 -1 828 1.0002147406339645e-01</internalNodes>
          <leafValues>
            5.5413089692592621e-02 -7.3650383949279785e-01</leafValues></_>
        <_>
          <internalNodes>
            0 -1 729 4.0675764903426170e-03</internalNodes>
          <leafValues>
            5.3451512008905411e-02 -5.8874684572219849e-01</leafValues></_>
        <_>
          <internalNodes>
            0 -1 572 1.1428873986005783e-03</internalNodes>
          <leafValues>
            -1.5007331967353821e-01 2.2277466952800751e-01</leafValues></_>
        <_>
          <internalNodes>
            0 -1 777 -3.4609748399816453e-04</internalNodes>
          <leafValues>
            -2.8117102384567261e-01 1.4481800794601440e-01</leafValues></_>
        <_>
          <internalNodes>
            0 -1 1055 3.9991056546568871e-03</internalNodes>
          <leafValues>
            -1.1109723150730133e-01 2.9487067461013794e-01</leafValues></_>
        <_>
          <internalNodes>
            0 -1 833 5.4200300946831703e-03</internalNodes>
          <leafValues>
            4.9543932080268860e-02 -6.4915245771408081e-01</leafValues></_>
        <_>
          <internalNodes>
            0 -1 1102 9.6255280077457428e-03</internalNodes>
          <leafValues>
            -5.1621165126562119e-02 7.3850923776626587e-01</leafValues></_>
        <_>
          <internalNodes>
            0 -1 1210 2.6379851624369621e-03</internalNodes>
          <leafValues>
            -9.8071031272411346e-02 2.8913399577140808e-01</leafValues></_>
        <_>
          <internalNodes>
            0 -1 1236 3.2915438059717417e-03</internalNodes>
          <leafValues>
            1.1194586753845215e-01 -2.8219601511955261e-01</leafValues></_>
        <_>
          <internalNodes>
            0 -1 1184 9.1785646975040436e-02</internalNodes>
          <leafValues>
            -3.9393920451402664e-02 8.3925443887710571e-01</leafValues></_>
        <_>
          <internalNodes>
            0 -1 196 -1.1641938984394073e-01</internalNodes>
          <leafValues>
            4.1541296243667603e-01 -7.9898111522197723e-02</leafValues></_>
        <_>
          <internalNodes>
            0 -1 0 -1.1060067918151617e-03</internalNodes>
          <leafValues>
            -2.4950708448886871e-01 1.2604224681854248e-01</leafValues></_>
        <_>
          <internalNodes>
            0 -1 1240 -2.2325962781906128e-03</internalNodes>
          <leafValues>
            2.9678338766098022e-01 -1.0831922292709351e-01</leafValues></_>
        <_>
          <internalNodes>
            0 -1 80 -8.5621923208236694e-03</internalNodes>
          <leafValues>
            -4.9125382304191589e-01 6.5250381827354431e-02</leafValues></_>
        <_>
          <internalNodes>
            0 -1 938 -1.1821701191365719e-02</internalNodes>
          <leafValues>
            2.3144325613975525e-01 -1.4651575684547424e-01</leafValues></_>
        <_>
          <internalNodes>
            0 -1 546 -6.8447524681687355e-03</internalNodes>
          <leafValues>
            2.8057163953781128e-01 -1.3083009421825409e-01</leafValues></_>
        <_>
          <internalNodes>
            0 -1 19 2.3512454703450203e-02</internalNodes>
          <leafValues>
            -1.4512027800083160e-01 2.4583834409713745e-01</leafValues></_>
        <_>
          <internalNodes>
            0 -1 313 4.4029043056070805e-03</internalNodes>
          <leafValues>
            5.3055219352245331e-02 -6.0711717605590820e-01</leafValues></_>
        <_>
          <internalNodes>
            0 -1 1250 4.9186113756150007e-04</internalNodes>
          <leafValues>
            1.1103539913892746e-01 -2.6995351910591125e-01</leafValues></_>
        <_>
          <internalNodes>
            0 -1 736 -9.9091436713933945e-03</internalNodes>
          <leafValues>
            -6.5181726217269897e-01 4.6411018818616867e-02</leafValues></_>
        <_>
          <internalNodes>
            0 -1 722 -8.1495484337210655e-03</internalNodes>
          <leafValues>
            2.9612803459167480e-01 -1.1622626334428787e-01</leafValues></_>
        <_>
          <internalNodes>
            0 -1 1108 -4.2979950085282326e-03</internalNodes>
          <leafValues>
            2.9242643713951111e-01 -1.2807022035121918e-01</leafValues></_>
        <_>
          <internalNodes>
            0 -1 912 4.0599459316581488e-04</internalNodes>
          <leafValues>
            1.4620091021060944e-01 -2.3584192991256714e-01</leafValues></_></weakClassifiers></_>
    <!-- stage 11 -->
    <_>
      <maxWeakCount>28</maxWeakCount>
      <stageThreshold>-9.1144084930419922e-01</stageThreshold>
      <weakClassifiers>
        <_>
          <internalNodes>
            0 -1 441 -4.4685936882160604e-04</internalNodes>
          <leafValues>
            5.7868337631225586e-01 5.4804269224405289e-02</leafValues></_>
        <_>
          <internalNodes>
            0 -1 561 3.7720106542110443e-02</internalNodes>
          <leafValues>
            -7.2702378034591675e-02 7.7322679758071899e-01</leafValues></_>
        <_>
          <internalNodes>
            0 -1 859 -5.7265727082267404e-04</internalNodes>
          <leafValues>
            2.9247736930847168e-01 -2.5327673554420471e-01</leafValues></_>
        <_>
          <internalNodes>
            0 -1 743 -9.5643370877951384e-04</internalNodes>
          <leafValues>
            4.5030596852302551e-01 -1.1473829299211502e-01</leafValues></_>
        <_>
          <internalNodes>
            0 -1 780 2.3707004729658365e-03</internalNodes>
          <leafValues>
            -1.8888014554977417e-01 3.5557317733764648e-01</leafValues></_>
        <_>
          <internalNodes>
            0 -1 339 1.5702818054705858e-03</internalNodes>
          <leafValues>
            -9.0207882225513458e-02 6.1278271675109863e-01</leafValues></_>
        <_>
          <internalNodes>
            0 -1 117 -8.0773727968335152e-03</internalNodes>
          <leafValues>
            4.6042251586914062e-01 -1.1716828495264053e-01</leafValues></_>
        <_>
          <internalNodes>
            0 -1 1113 1.1268348898738623e-03</internalNodes>
          <leafValues>
            -1.2045232206583023e-01 4.0653404593467712e-01</leafValues></_>
        <_>
          <internalNodes>
            0 -1 1167 -8.6699367966502905e-04</internalNodes>
          <leafValues>
            -3.6285501718521118e-01 1.5241686999797821e-01</leafValues></_>
        <_>
          <internalNodes>
            0 -1 1165 9.0715452097356319e-04</internalNodes>
          <leafValues>
            1.6068989038467407e-01 -3.2933568954467773e-01</leafValues></_>
        <_>
          <internalNodes>
            0 -1 439 2.8110090643167496e-03</internalNodes>
          <leafValues>
            -1.8165059387683868e-01 3.4778976440429688e-01</leafValues></_>
        <_>
          <internalNodes>
            0 -1 867 -4.6640587970614433e-03</internalNodes>
          <leafValues>
            -4.0372562408447266e-01 1.3559129834175110e-01</leafValues></_>
        <_>
          <internalNodes>
            0 -1 1121 -4.8799777869135141e-04</internalNodes>
          <leafValues>
            2.3120394349098206e-01 -2.3420314490795135e-01</leafValues></_>
        <_>
          <internalNodes>
            0 -1 552 4.0321446955204010e-02</internalNodes>
          <leafValues>
            9.1469042003154755e-02 -5.9693247079849243e-01</leafValues></_>
        <_>
          <internalNodes>
            0 -1 378 -7.4969220440834761e-04</internalNodes>
          <leafValues>
            3.8753116130828857e-01 -1.3718715310096741e-01</leafValues></_>
        <_>
          <internalNodes>
            0 -1 1153 3.4470967948436737e-02</internalNodes>
          <leafValues>
            1.1053424328565598e-01 -3.9701938629150391e-01</leafValues></_>
        <_>
          <internalNodes>
            0 -1 1135 8.5665211081504822e-03</internalNodes>
          <leafValues>
            -1.5696921944618225e-01 2.9818123579025269e-01</leafValues></_>
        <_>
          <internalNodes>
            0 -1 989 3.1423307955265045e-03</internalNodes>
          <leafValues>
            6.2486264854669571e-02 -7.5945317745208740e-01</leafValues></_>
        <_>
          <internalNodes>
            0 -1 814 -3.5744972527027130e-02</internalNodes>
          <leafValues>
            -6.4154952764511108e-01 6.3460014760494232e-02</leafValues></_>
        <_>
          <internalNodes>
            0 -1 472 1.2400368228554726e-02</internalNodes>
          <leafValues>
            -1.1753791570663452e-01 4.6895238757133484e-01</leafValues></_>
        <_>
          <internalNodes>
            0 -1 643 8.0577842891216278e-03</internalNodes>
          <leafValues>
            -7.6346330344676971e-02 6.2796038389205933e-01</leafValues></_>
        <_>
          <internalNodes>
            0 -1 388 -2.7830337057821453e-04</internalNodes>
          <leafValues>
            2.7962338924407959e-01 -1.5769514441490173e-01</leafValues></_>
        <_>
          <internalNodes>
            0 -1 798 -2.4197798222303391e-02</internalNodes>
          <leafValues>
            -7.6389551162719727e-01 6.7573651671409607e-02</leafValues></_>
        <_>
          <internalNodes>
            0 -1 536 -3.9873318746685982e-03</internalNodes>
          <leafValues>
            -4.5193269848823547e-01 8.9621007442474365e-02</leafValues></_>
        <_>
          <internalNodes>
            0 -1 52 8.3955731242895126e-03</internalNodes>
          <leafValues>
            6.8638004362583160e-02 -6.3616365194320679e-01</leafValues></_>
        <_>
          <internalNodes>
            0 -1 453 -4.0320813423022628e-04</internalNodes>
          <leafValues>
            2.5424584746360779e-01 -1.7190426588058472e-01</leafValues></_>
        <_>
          <internalNodes>
            0 -1 621 4.7953947796486318e-04</internalNodes>
          <leafValues>
            -2.6893931627273560e-01 1.8015153706073761e-01</leafValues></_>
        <_>
          <internalNodes>
            0 -1 818 -3.3602602779865265e-03</internalNodes>
          <leafValues>
            -6.8832319974899292e-01 6.6661313176155090e-02</leafValues></_></weakClassifiers></_>
    <!-- stage 12 -->
    <_>
      <maxWeakCount>59</maxWeakCount>
      <stageThreshold>-7.3605090379714966e-01</stageThreshold>
      <weakClassifiers>
        <_>
          <internalNodes>
            0 -1 445 1.2234756723046303e-03</internalNodes>
          <leafValues>
            6.8793617188930511e-02 4.6619930863380432e-01</leafValues></_>
        <_>
          <internalNodes>
            0 -1 270 4.1113793849945068e-02</internalNodes>
          <leafValues>
            -6.7573726177215576e-02 4.1232290863990784e-01</leafValues></_>
        <_>
          <internalNodes>
            0 -1 943 2.5919714942574501e-02</internalNodes>
          <leafValues>
            -4.6546772122383118e-02 5.9719663858413696e-01</leafValues></_>
        <_>
          <internalNodes>
            0 -1 693 -1.9634220749139786e-02</internalNodes>
          <leafValues>
            -4.2257925868034363e-01 7.3926866054534912e-02</leafValues></_>
        <_>
          <internalNodes>
            0 -1 893 -9.1775348410010338e-03</internalNodes>
          <leafValues>
            3.0696436762809753e-01 -8.9102417230606079e-02</leafValues></_>
        <_>
          <internalNodes>
            0 -1 591 3.4088757820427418e-03</internalNodes>
          <leafValues>
            3.4766335040330887e-02 -5.7766705751419067e-01</leafValues></_>
        <_>
          <internalNodes>
            0 -1 441 -2.8960048221051693e-03</internalNodes>
          <leafValues>
            -6.5533173084259033e-01 4.2841132730245590e-02</leafValues></_>
        <_>
          <internalNodes>
            0 -1 762 3.2937298528850079e-03</internalNodes>
          <leafValues>
            -1.5738563239574432e-01 1.8588417768478394e-01</leafValues></_>
        <_>
          <internalNodes>
            0 -1 205 -6.2732454389333725e-03</internalNodes>
          <leafValues>
            3.1796696782112122e-01 -1.0160369426012039e-01</leafValues></_>
        <_>
          <internalNodes>
            0 -1 802 8.7862247601151466e-03</internalNodes>
          <leafValues>
            -3.8722030818462372e-02 4.7096413373947144e-01</leafValues></_>
        <_>
          <internalNodes>
            0 -1 340 1.2661842629313469e-02</internalNodes>
          <leafValues>
            -1.3234594464302063e-01 2.4656280875205994e-01</leafValues></_>
        <_>
          <internalNodes>
            0 -1 488 -2.3736432194709778e-03</internalNodes>
          <leafValues>
            2.2695229947566986e-01 -1.2542721629142761e-01</leafValues></_>
        <_>
          <internalNodes>
            0 -1 521 3.9250012487173080e-03</internalNodes>
          <leafValues>
            4.3633691966533661e-02 -5.5187332630157471e-01</leafValues></_>
        <_>
          <internalNodes>
            0 -1 823 7.8538525849580765e-03</internalNodes>
          <leafValues>
            -1.1078543961048126e-01 2.3273606598377228e-01</leafValues></_>
        <_>
          <internalNodes>
            0 -1 870 -2.1786794066429138e-02</internalNodes>
          <leafValues>
            -5.3478771448135376e-01 5.9039950370788574e-02</leafValues></_>
        <_>
          <internalNodes>
            0 -1 1004 1.3953824527561665e-03</internalNodes>
          <leafValues>
            6.8981520831584930e-02 -3.9191272854804993e-01</leafValues></_>
        <_>
          <internalNodes>
            0 -1 1178 -1.4863051474094391e-03</internalNodes>
          <leafValues>
            -2.2970256209373474e-01 1.1257534474134445e-01</leafValues></_>
        <_>
          <internalNodes>
            0 -1 95 -3.1167895067483187e-03</internalNodes>
          <leafValues>
            2.4087120592594147e-01 -9.7054705023765564e-02</leafValues></_>
        <_>
          <internalNodes>
            0 -1 537 -2.6345504447817802e-03</internalNodes>
          <leafValues>
            2.9100412130355835e-01 -1.0449367761611938e-01</leafValues></_>
        <_>
          <internalNodes>
            0 -1 758 5.4497397504746914e-03</internalNodes>
          <leafValues>
            3.4902628511190414e-02 -6.6193401813507080e-01</leafValues></_>
        <_>
          <internalNodes>
            0 -1 746 5.9160601813346148e-04</internalNodes>
          <leafValues>
            -1.2174841761589050e-01 1.9681103527545929e-01</leafValues></_>
        <_>
          <internalNodes>
            0 -1 777 2.8870947426185012e-04</internalNodes>
          <leafValues>
            -1.6885344684123993e-01 1.5053798258304596e-01</leafValues></_>
        <_>
          <internalNodes>
            0 -1 879 -2.0659195724874735e-03</internalNodes>
          <leafValues>
            2.3023523390293121e-01 -1.3137722015380859e-01</leafValues></_>
        <_>
          <internalNodes>
            0 -1 726 -8.5130217485129833e-04</internalNodes>
          <leafValues>
            2.3925149440765381e-01 -1.4131571352481842e-01</leafValues></_>
        <_>
          <internalNodes>
