<?xml version="1.0"?>
<opencv_storage>
<stage41>
  <maxWeakCount>31</maxWeakCount>
  <stageThreshold>-8.3861267566680908e-01</stageThreshold>
  <weakClassifiers>
    <_>
      <internalNodes>
        0 -1 29770 1.0593510232865810e-02</internalNodes>
      <leafValues>
        4.2093372344970703e-01 -3.4302327036857605e-01</leafValues></_>
    <_>
      <internalNodes>
        0 -1 56931 -9.7394799813628197e-03</internalNodes>
      <leafValues>
        6.0711783170700073e-01 -8.1981524825096130e-02</leafValues></_>
    <_>
      <internalNodes>
        0 -1 56687 7.1380846202373505e-03</internalNodes>
      <leafValues>
        1.1082915216684341e-01 -5.7572633028030396e-01</leafValues></_>
    <_>
      <internalNodes>
        0 -1 39022 -9.2447362840175629e-03</internalNodes>
      <leafValues>
        2.3796077072620392e-01 -2.3640155792236328e-01</leafValues></_>
    <_>
      <internalNodes>
        0 -1 42210 -7.4864374473690987e-03</internalNodes>
      <leafValues>
        -5.1255369186401367e-01 1.2822481989860535e-01</leafValues></_>
    <_>
      <internalNodes>
        0 -1 61443 -1.5557425795122981e-03</internalNodes>
      <leafValues>
        3.7249153852462769e-01 -1.2786969542503357e-01</leafValues></_>
    <_>
      <internalNodes>
        0 -1 26179 9.6509512513875961e-03</internalNodes>
      <leafValues>
        6.6043928265571594e-02 -5.9351634979248047e-01</leafValues></_>
    <_>
      <internalNodes>
        0 -1 33952 6.1843134462833405e-03</internalNodes>
      <leafValues>
        1.3764080405235291e-01 -3.5879868268966675e-01</leafValues></_>
    <_>
      <internalNodes>
        0 -1 43128 -2.3194709792733192e-02</internalNodes>
      <leafValues>
        -6.8983465433120728e-01 7.4235901236534119e-02</leafValues></_>
    <_>
      <internalNodes>
        0 -1 601 9.3722581863403320e-02</internalNodes>
      <leafValues>
        -7.4071660637855530e-02 6.4604425430297852e-01</leafValues></_>
    <_>
      <internalNodes>
        0 -1 1980 -3.7342761643230915e-03</internalNodes>
      <leafValues>
        1.9860075414180756e-01 -2.2150336205959320e-01</leafValues></_>
    <_>
      <internalNodes>
        0 -1 41062 -4.8720989376306534e-02</internalNodes>
      <leafValues>
        -6.0118865966796875e-01 7.1376748383045197e-02</leafValues></_>
    <_>
      <internalNodes>
        0 -1 32325 -1.2542284093797207e-03</internalNodes>
      <leafValues>
        -4.1771960258483887e-01 1.0295269638299942e-01</leafValues></_>
    <_>
      <internalNodes>
        0 -1 3940 -4.1677437722682953e-02</internalNodes>
      <leafValues>
        -6.6024369001388550e-01 6.4031593501567841e-02</leafValues></_>
    <_>
      <internalNodes>
        0 -1 6539 -1.2167070806026459e-01</internalNodes>
      <leafValues>
        4.8485550284385681e-01 -9.0410917997360229e-02</leafValues></_>
    <_>
      <internalNodes>
        0 -1 61635 5.0671920180320740e-03</internalNodes>
      <leafValues>
        7.7555708587169647e-02 -4.8884853720664978e-01</leafValues></_>
    <_>
      <internalNodes>
        0 -1 49968 1.2041921727359295e-03</internalNodes>
      <leafValues>
        1.2843643128871918e-01 -3.3865851163864136e-01</leafValues></_>
    <_>
      <internalNodes>
        0 -1 27790 1.5986009966582060e-03</internalNodes>
      <leafValues>
        1.0136386752128601e-01 -4.1256916522979736e-01</leafValues></_>
    <_>
      <internalNodes>
        0 -1 40372 -3.6357430508360267e-04</internalNodes>
      <leafValues>
        2.2507511079311371e-01 -1.6143478453159332e-01</leafValues></_>
    <_>
      <internalNodes>
        0 -1 37491 5.1173507235944271e-03</internalNodes>
      <leafValues>
        -7.1522317826747894e-02 5.5024379491806030e-01</leafValues></_>
    <_>
      <internalNodes>
        0 -1 37491 -2.7097989805042744e-03</internalNodes>
      <leafValues>
        3.4241500496864319e-01 -1.1559693515300751e-01</leafValues></_>
    <_>
      <internalNodes>
        0 -1 35256 6.8213365739211440e-04</internalNodes>
      <leafValues>
        -1.6003824770450592e-01 2.4373658001422882e-01</leafValues></_>
    <_>
      <internalNodes>
        0 -1 26493 -3.3998782746493816e-03</internalNodes>
      <leafValues>
        -4.9573114514350891e-01 7.8565306961536407e-02</leafValues></_>
    <_>
      <internalNodes>
        0 -1 38704 -7.2151661152020097e-04</internalNodes>
      <leafValues>
        2.5605061650276184e-01 -1.6486158967018127e-01</leafValues></_>
    <_>
      <internalNodes>
        0 -1 21637 1.2149810791015625e-02</internalNodes>
      <leafValues>
        -6.1808183789253235e-02 6.1071795225143433e-01</leafValues></_>
    <_>
      <internalNodes>
        0 -1 44104 1.1826507747173309e-02</internalNodes>
      <leafValues>
        -7.1350261569023132e-02 5.3185224533081055e-01</leafValues></_>
    <_>
      <internalNodes>
        0 -1 30727 -7.4949763074982911e-05</internalNodes>
      <leafValues>
        1.8233811855316162e-01 -2.0806647837162018e-01</leafValues></_>
    <_>
      <internalNodes>
        0 -1 73477 5.0818445160984993e-03</internalNodes>
      <leafValues>
        -6.9018781185150146e-02 5.7192862033843994e-01</leafValues></_>
    <_>
      <internalNodes>
        0 -1 38435 -1.6613490879535675e-03</internalNodes>
      <leafValues>
        -5.7563549280166626e-01 6.9166533648967743e-02</leafValues></_>
    <_>
      <internalNodes>
        0 -1 43577 -1.1130181374028325e-03</internalNodes>
      <leafValues>
        2.4475526809692383e-01 -1.5886884927749634e-01</leafValues></_>
    <_>
      <internalNodes>
        0 -1 32636 -2.8059520991519094e-04</internalNodes>
      <leafValues>
        2.0745548605918884e-01 -2.2063097357749939e-01</leafValues></_></weakClassifiers></stage41>
</opencv_storage>
