<?xml version="1.0"?>
<opencv_storage>
<stage32>
  <maxWeakCount>28</maxWeakCount>
  <stageThreshold>-8.5141193866729736e-01</stageThreshold>
  <weakClassifiers>
    <_>
      <internalNodes>
        0 -1 38455 3.4201992675662041e-03</internalNodes>
      <leafValues>
        4.8514851927757263e-01 -1.8759231269359589e-01</leafValues></_>
    <_>
      <internalNodes>
        0 -1 28061 1.7037268262356520e-03</internalNodes>
      <leafValues>
        -1.4211720228195190e-01 4.1674724221229553e-01</leafValues></_>
    <_>
      <internalNodes>
        0 -1 26494 1.6313353262376040e-04</internalNodes>
      <leafValues>
        2.9663699865341187e-01 -2.2687163949012756e-01</leafValues></_>
    <_>
      <internalNodes>
        0 -1 38937 -4.0782077121548355e-04</internalNodes>
      <leafValues>
        1.4553107321262360e-01 -3.7949866056442261e-01</leafValues></_>
    <_>
      <internalNodes>
        0 -1 43578 2.1608620882034302e-03</internalNodes>
      <leafValues>
        -1.0086407512426376e-01 4.9449580907821655e-01</leafValues></_>
    <_>
      <internalNodes>
        0 -1 37514 -5.6775081902742386e-03</internalNodes>
      <leafValues>
        3.5393738746643066e-01 -1.5829785168170929e-01</leafValues></_>
    <_>
      <internalNodes>
        0 -1 43542 2.8380504809319973e-03</internalNodes>
      <leafValues>
        -1.1095383763313293e-01 4.2885637283325195e-01</leafValues></_>
    <_>
      <internalNodes>
        0 -1 36334 9.7242230549454689e-03</internalNodes>
      <leafValues>
        -1.4448373019695282e-01 3.5661387443542480e-01</leafValues></_>
    <_>
      <internalNodes>
        0 -1 34762 1.8447253387421370e-03</internalNodes>
      <leafValues>
        -2.1887457370758057e-01 2.2501866519451141e-01</leafValues></_>
    <_>
      <internalNodes>
        0 -1 36453 -2.5997638702392578e-02</internalNodes>
      <leafValues>
        -3.4389930963516235e-01 1.5866075456142426e-01</leafValues></_>
    <_>
      <internalNodes>
        0 -1 17327 5.6373942643404007e-03</internalNodes>
      <leafValues>
        1.5584668517112732e-01 -3.2359939813613892e-01</leafValues></_>
    <_>
      <internalNodes>
        0 -1 35400 -5.1445752382278442e-02</internalNodes>
      <leafValues>
        7.8125518560409546e-01 -7.3908329010009766e-02</leafValues></_>
    <_>
      <internalNodes>
        0 -1 24560 -1.5651073772460222e-03</internalNodes>
      <leafValues>
        3.3013382554054260e-01 -1.4589297771453857e-01</leafValues></_>
    <_>
      <internalNodes>
        0 -1 48509 -5.6416867300868034e-03</internalNodes>
      <leafValues>
        -6.3480949401855469e-01 7.1758382022380829e-02</leafValues></_>
    <_>
      <internalNodes>
        0 -1 38700 3.5069482401013374e-03</internalNodes>
      <leafValues>
        9.4657801091670990e-02 -5.0382351875305176e-01</leafValues></_>
    <_>
      <internalNodes>
        0 -1 44097 4.9689114093780518e-03</internalNodes>
      <leafValues>
        -8.8564306497573853e-02 5.5198621749877930e-01</leafValues></_>
    <_>
      <internalNodes>
        0 -1 38936 5.5181083735078573e-04</internalNodes>
      <leafValues>
        -2.4244564771652222e-01 1.8935546278953552e-01</leafValues></_>
    <_>
      <internalNodes>
        0 -1 7753 -4.9330154433846474e-04</internalNodes>
      <leafValues>
        -2.5362932682037354e-01 1.8146635591983795e-01</leafValues></_>
    <_>
      <internalNodes>
        0 -1 46121 -1.4032313600182533e-02</internalNodes>
      <leafValues>
        5.7319188117980957e-01 -8.2072407007217407e-02</leafValues></_>
    <_>
      <internalNodes>
        0 -1 59332 1.0037219617515802e-03</internalNodes>
      <leafValues>
        1.9096547365188599e-01 -2.6370540261268616e-01</leafValues></_>
    <_>
      <internalNodes>
        0 -1 12547 -2.8386304154992104e-02</internalNodes>
      <leafValues>
        4.7884541749954224e-01 -8.5918195545673370e-02</leafValues></_>
    <_>
      <internalNodes>
        0 -1 2779 -7.9106017947196960e-03</internalNodes>
      <leafValues>
        4.4900649785995483e-01 -8.5958085954189301e-02</leafValues></_>
    <_>
      <internalNodes>
        0 -1 15573 -1.2431910727173090e-03</internalNodes>
      <leafValues>
        2.6166817545890808e-01 -1.4517462253570557e-01</leafValues></_>
    <_>
      <internalNodes>
        0 -1 61787 -5.5369356414303184e-04</internalNodes>
      <leafValues>
        -2.8205507993698120e-01 1.5460674464702606e-01</leafValues></_>
    <_>
      <internalNodes>
        0 -1 54566 -6.4180614426732063e-03</internalNodes>
      <leafValues>
        -3.5346376895904541e-01 1.1792360246181488e-01</leafValues></_>
    <_>
      <internalNodes>
        0 -1 33249 -7.0397537201642990e-03</internalNodes>
      <leafValues>
        -4.6051442623138428e-01 8.5633911192417145e-02</leafValues></_>
    <_>
      <internalNodes>
        0 -1 37797 -1.4681821921840310e-03</internalNodes>
      <leafValues>
        4.8934796452522278e-01 -7.9587802290916443e-02</leafValues></_>
    <_>
      <internalNodes>
        0 -1 32331 4.8262099735438824e-03</internalNodes>
      <leafValues>
        8.2565777003765106e-02 -4.9037659168243408e-01</leafValues></_></weakClassifiers></stage32>
</opencv_storage>
